encog,BasicNetwork,java,3.4.0,1,63642541499828
[BASIC]
[BASIC:PARAMS]
[BASIC:NETWORK]
beginTraining=0
connectionLimit=0
contextTargetOffset=0,0,0,0
contextTargetSize=0,0,0,0
endTraining=3
hasContext=f
inputCount=40
layerCounts=2,21,41,41
layerFeedCounts=2,20,40,40
layerContextCount=0,0,0,0
layerIndex=0,2,23,64
output=0.00175808343879463,0.996501341837304,0.0235044734267344,0.000194071318461361,0.00000038710576417684,0.306102709388499,0.999883206374646,0.820990394711118,0.992463266660794,0.0235056723868297,0.205546373434287,0.302935216845581,0.112353210696477,0.687294436542546,0.780154005650343,0.609460492937094,0.758272756357886,0.00000000000003268068,0.750751475997041,0.00297108605869894,0.000119202091096171,0.000735337548960335,1,0.0138770549021914,0.150524101184853,0.981573118619548,0.00362740166894094,0.999690632212897,0.0382027832740618,1,0.999994083696357,0.995382987976803,0.00000000000000000001,0.618693038767139,0.999999849277991,0.00229634068349492,0.784706668429377,0.990507344849015,1,0.000109601748985272,0.999999999999992,0.000137002305284405,0.999999996642627,0.00000000000032083294,0.929021432422761,0.00245914979473353,0.999974259519055,0.970512015626908,0.000239013081626364,0.00754391608381682,0.998296133743525,0.106146685349739,0.555716483839597,0.0292051352374654,0.839094926511867,0.00000327037124893492,0.999999999999367,0.0700268219257372,0.989281972943765,0.196856930060043,0.99489376304128,0.102826949946063,0.991200966577263,1,-0.0965,0.4765,-1.1735,0.5896,-0.084,0.474,-1.179,0.6524,-0.0825,0.445,-1.153,0.7126,-0.145,0.4435,-1.145,0.7733,-0.096,0.316,-1.142,0.831,-0.1265,0.2835,-1.0195,0.8814,-0.075,0.354,-1.005,0.9322,-0.1015,0.296,-1.1315,0.9801,-0.062,0.135,-0.9835,1.0155,-0.018,0.2145,-0.9745,1.051,1
outputCount=2
weightIndex=0,42,862,2502
weights=##0
##double#2502
   0.2340137701,-0.4084394323,43.1289541013,-0.9562261848,-0.8289226419,-0.4251633876,2.8833919317,8.8038659262,1.08839253,11.3483198687,15.2150473253,0.2471925788,-2.7909773595,-1.2539363544,-0.1869896706,10.1778852301,-15.0571580255,13.2424758493,3.0316800316,19.781234901,0.8472371989,-0.8506927114,-0.5619539393,-39.8970082534,1.1226295713,0.7549340165,0.4793353084,-4.0063309376,-7.8966460294,-0.8354159763,-9.9546508715,-14.9002342388,0.0574734593,3.1238549804,0.4990142851,0.0063413545,-8.9440704965,13.9742313053,-12.0822962791,-2.6042630176,-19.0124189238,-0.0233658464,-0.1297331131,-2.7605985045,0.0891305032,0.91976686,-0.5900106741,-1.7651707051,-0.405003198,-0.5497192569,0.7042754221,0.1080502367,0.6612520062,0.6854164691,-1.1195806424,-0.0873571784,-0.1847449477,-0.815536066,1.5136094118,0.6877536725,0.7015806685,-0.0153405471,-1636.6349136696,0.47265537,-4.1309538044,-0.867774714,0.6966775185,-0.4262684726,11.7604917161,0.6474197257,0.0009793495,0.5303863525,-0.8875094232,-0.6024604973,-0.0439621994,0.4436931106,-2.3559477236,-0.766577847,0.845714054,-2.6350581765,-0.5367856779,-0.3826916871,-0.5532493484,0.4166936053,0.5751907477,0.0904238041,-0.0171565447,-0.5612255023,-1.3202724293,2.1294767779,-0.7419920768,0.9263426114,-0.0977476291,-0.1527861521,-0.6602113059,0.2531466133,-0.4092849672,0.3217771534,0.0422871069,-3.1485699126,-0.1263092826,-0.0609038623,-0.9788318828,1.6601280312,0.8740521059,-0.9442717824,0.0728017631,-0.2048158364,0.1093764872,-0.7827184433,-0.7150494577,2.7813111479,0.3532361673,0.3276420312,-0.7355186995,-0.3147901505,0.252965842,0.2562688021,0.668973239,0.8270049683,-9.1188751138,0.2499118451,-0.1867422049,-0.3181342086,-0.011658391,-2.3946723376,-1.2620922204,0.2958531982,-0.6515638114,-0.0539255463,-0.7636663615,-0.367443469,-0.3442730742,0.2703127552,0.5159367954,0.1692281324,0.4120620593,-0.0893734319,-0.8633759001,-0.6897972933,0.5928609201,-0.6246481695,0.4137330837,-1.0647905013,-0.0112544846,-0.6532319105,-1.5840613628,0.6311280909,0.4361279062,-1.041411446,-6.203931032,-0.6166551835,-38.4972757161,0.3954274259,0.9217313135,-1.0528402341,0.694583263,-0.3881708187,-5.4523773513,-1.0336541178,-0.034640978,-1.6747763815,-0.6490376303,0.6185720802,-0.3625539969,0.0482066301,0.8237551067,0.322570755,-0.7961007152,0.5700872975,1.1744822561,-0.6096097503,-0.6947362113,-0.6645713911,-0.5775561026,-0.1461504782,-3.159946302,1.2117682012,0.1587915186,-0.414937697,-0.2508778624,-0.9595340945,-0.0365588077,0.960087874,0.6478083343,1.402692717,-0.0085484627,1.4258518252,0.0698866461,0.8072147268,0.8470403798,0.2476923538,-0.5758203446,1.6509460162,-0.5850960667,0.7173253902,2.2489702541,0.741411013,-0.1099744737,0.9631902103,0.6462132381,-0.5907105314,0.9036857685,-0.7458363402,-0.213147232,0.1420175693,0.2431048568,-0.5442306209,0.550553375,-0.8719459941,-0.2564904863,0.7580777771,-0.99765845,0.7550323335,0.1288343103,0.3444162612,0.4245131213,0.6738870965,2.7550730051,0.4621212986,0.755587299,3.5704689782,76.5642653121,-0.0193488425,0.3942025378,1.2275020584,0.158783398,-0.7359429221,0.4468060102,0.2386905149,0.878549448,0.3568603692,-2.2458603704,-0.6206020952,18.9196654619,-0.7988518242,-0.9623529191,-0.5045046029,-0.6066700906,0.5185324676,0.6422042097,0.8121788596,0.1189124588,0.1650390116,1.2104006253,-1.0380610763,0.561833906,0.083791205,0.9500216742,-0.208315304,-1.0589203087,1.2066536666,-0.4305489085,0.5410026419,-2.7469919823,0.8774972446,0.9256806477,-0.3604142743,-1.3567134404,0.1555452662,0.3184805869,-0.1977099167,1.6412157052,-2.3525401423,0.4472394692,0.8828592755,0.5423272855,0.5590649582,-0.1689707724,0.36215965,-0.2449649108,-0.8109999721,1.4170004222,1.310739341,0.4342347938,0.7075947842,-0.2102502787,0.0590678528,-0.1671777958,0.0155974804,-0.1488323013,2.2719365527,1.0184282151,0.8259550859,1.7742973337,1.0902039884,-0.714318667,-0.8004491386,-0.6251207766,-1.0255870585,-0.7637657972,0.4331939234,-0.5259858748,0.5911710219,-0.3818391629,0.7133880408,-0.6407009185,-0.7815422078,0.2170036853,8.4409886319,-1.9396000463,-0.8166381279,0.3124580837,-0.16903619,0.5471866866,-0.8079953482,0.7897877399,-1.1206892446,-1.0210719317,1.1174582322,0.2016762022,0.7491125465,0.38269834,-0.1847515632,-15.2345185493,0.1082137065,-11.2598599958,-0.2149089992,1.4737112866,0.3943328097,1.0637688941,0.1532058591,-8.469352263,0.4979819672,0.3346532755,-0.2130368106,-0.9332259314,-0.2601803432,-0.3052508877,0.839372695,-0.4926949101,-0.7512671845,1.2010613565,0.2863015845,-0.2217189258,0.653238668,0.7851218289,0.7404846415,-0.8980474029,-0.4318193803,-0.1552412396,-2.7990988936,-0.6278263264,0.0783392028,-0.4733054055,5.3870200066,-1.1040917503,0.1769462204,0.1286699437,-2.9114478558,0.8907731196,0.9668595624,0.235914365,0.110086756,-0.9726822249,4.6799382368,-1.0246138344,-2.482105027,-0.0356907054,-0.6367302835,-0.4788255469,-0.3663162582,-0.8379177162,0.189421135,0.8243312188,-0.9231162999,-0.612845745,-0.8284758097,-1.1227468767,-0.5748484495,-0.2660308612,-0.9031983636,-0.5432098543,0.324608937,-0.5178523567,0.2563599495,0.8466349908,-0.5859689932,-0.7910077161,0.3375836772,-0.4590942766,0.9450517109,-6.9411507468,0.7360407351,-0.0210678676,-0.2460562006,0.7183804168,0.5905604898,-0.6884771217,-0.4813595693,-1.8925855353,0.9073825739,0.6813467419,-0.8533935479,0.40402245,-5.8233729902,-2.6833639196,-0.910939755,1.6433820295,0.9243004324,0.2671423744,-0.5913835586,0.8756013526,-0.4516205569,-6.2550477067,0.586096599,0.4566396134,-0.6781683299,0.8627658965,0.6961189734,-0.246745989,-0.9469571811,-1.8441814989,-1.8199222454,2.236042951,-0.393102549,-1.1287451663,-0.242206662,1.0575697081,0.4196946861,1.0463911695,-0.3402032949,1.0191383962,-0.3526901739,0.7864767803,-0.8576578439,-0.3325771309,0.8466715284,0.849258694,-1.0005563735,0.7095090284,-0.5057483642,1.0581668254,-1.7186007685,-0.1532618632,0.9087047214,-0.4303790991,1.0659205272,-0.3129305894,-0.6839043457,-0.0995017256,-0.7180847809,-0.6886373272,-0.776773314,-0.7027516255,-1.9527533292,-1.0514516127,0.392344049,-0.2576778083,-0.0028267507,0.4888357748,-0.4647594218,-0.8541826007,-1.821028864,-1.9006888234,0.1379094245,0.5683608931,-0.0101711488,-0.1910438095,0.9087740101,-0.8085127636,0.537440218,-1.1122337736,0.4980765232,-6.740055655,0.611245077,-0.224592605,0.169479911,1.1281039374,0.4556634299,1.2121016854,0.5715250163,0.3268516089,0.9063299601,-0.8512685791,-0.0976199168,0.1595369509,-2.7941554129,1.4874008479,-0.7113234838,-0.4370493432,0.8350649157,-0.5952223847,-0.5253903908,-0.8398363503,-1.3519309346,-0.2866502884,0.2277224657,-0.5110387111,0.009746165,-0.0552322624,-0.8935628353,0.3268608241,-0.1635623617,-0.4745441884,-0.9343880128,6.2948890316,-0.1105581435,0.2169787768,0.1935665932,0.2757026574,0.3233955663,-0.643468837,0.2283738689,0.0939855697,-0.2520826776,0.7286752503,-0.7941674983,0.3935746484,-1.4256401173,0.9241818968,-0.3766570933,0.6985525213,-4.2993577095,0.8834556314,-0.2051672585,0.6240660616,-0.9241863028,-7.3068485182,2.1626065544,-0.0017631432,-0.2848047135,-1.0460388392,-1.024050585,0.6287175318,-0.3764761388,-0.7366598721,-0.8557472292,-0.4704963601,0.3881354821,-0.6769704839,0.0961796862,0.0544365732,0.3796490336,-0.6378724703,1.0257298212,1.6493161138,-5.5332367792,-0.1288496873,-0.4558290761,-0.1036599847,-0.4721954905,0.8148181024,0.7754533691,-1.6303684407,-0.8694626549,0.4021385365,0.7893175839,0.7295739055,0.8496829707,0.1644031991,0.500728922,0.7260634562,-0.8698630262,5.4906126093,-0.6244491998,-0.3931458905,0.9811712941,-1.0706898302,0.8642868055,-1.6689751355,0.1975769642,-3.769283524,0.4064899404,-2.5551433397,-0.329372752,-0.1737383837,0.3929256323,0.9232664495,0.7241212593,-0.6051799313,-0.4474961041,2.1986922822,-0.0986191694,-0.2707911109,-0.950251632,0.6558635708,-0.6696600554,0.0781675851,-0.0263705271,0.0022504131,-0.4665681024,-1.0186115735,-0.8097087676,-0.1004984076,0.7003022588,-0.778693399,1.9903793009,-0.3682083776,0.759998513,0.7015593475,-1.3377958019,-0.8507383602,0.7464037219,0.2332355165,835.8735333189,0.1517331992,-0.1087011043,0.4004503832,-0.6846947366,2.2386144529,-2.094635797,0.633582929,1.4745973367,-0.4813066735,-0.2396120542,0.7514826269,-0.1681091806,-0.2544207756,1.6038529343,-0.4528582636,0.3250298458,1.2289930396,-1.03900923,0.6266660809,0.9095634912,-0.6663312921,-0.8987956463,-0.1193383856,1.1749491369,0.0004775217,-0.4139731177,-0.2619792878,0.4297816506,0.8739637058,-0.6996181023,-0.4640207501,0.8990790525,-0.4029769559,-0.0945039096,0.4693216856,-0.8920144125,-1.5247340635,-0.7222606781,-0.0274611515,0.7560576053,3.8291554113,1.0612785562,0.8472995621,-0.2325006555,-0.5639353148,3.4751974591,1.0704340933,0.1697282352,-3.8204826924,-0.8814086302,-0.3402623593,-0.7554559644,-0.6664746223,0.1950101171,0.1222780931,-0.46114034,-0.5904186889,0.5952531079,0.4676538108,0.8451749028,0.2782883374,-6.7358575777,-0.7110999332,0.5983222635,-0.1777694805,-1.8153013341,-0.2013131034,-13.2452197233,0.6867036654,-0.59825797,-0.7852772212,-0.1926908711,4.574974018,0.2848405654,0.7011730512,0.7005754042,-15.2171831507,0.6893520311,0.2667729633,-0.1275169883,-0.6253129369,-273.5260836647,-1.2626007834,-10.8653118089,-0.1857409819,2.4304078319,-6.1336764183,-3.8188819856,-0.1114590382,-16.9437789324,-0.8448792943,0.7402336936,-3.0168421001,0.8876858242,-0.6598450248,-18.0809938728,-0.7853738528,-0.0117634792,-0.4728362071,0.029527772,-0.1419484567,0.6728617938,0.1926989985,1.1117500629,0.0569518642,-0.3326368459,0.8683862094,-0.4564087001,0.2630274116,0.225936776,0.1127285857,0.2451232617,-0.498524826,0.1952518186,0.8439975022,-0.7001967446,-0.488560715,0.2749855142,0.1213994413,-0.751348601,-0.2153470898,0.7732693477,-0.124603327,-1.0944017054,0.1001651984,-0.6659538551,-0.0757693665,0.9985392467,-3.971662733,0.8429389682,0.1592841,-0.5845558911,-0.9849715886,1.9110728767,0.5274756309,-0.5688241035,1.6614063335,-0.2682796505,-0.019654817,0.568769213,0.3180527019,-0.5981893725,0.6671950714,-0.3024513339,-0.6131217529,-0.2000405436,1.1294634274,-0.7223451626,-0.2629898066,0.2323427059,-0.0155470328,-1.5883238496,-0.6939747072,-0.6388498196,-0.5771669086,0.0047194486,-0.5873508617,-0.3564240271,-0.5481183687,3.5868277823,-0.0801403307,0.7865029414,-1.0210890285,-0.6188565984,1.1296030304,-0.4551976771,-0.2334551554,0.311019763,0.7150856113,3.7429139212,-0.4019405563,-0.8432288278,-0.3995257504,0.4512156192,0.7736392171,-0.3399744241,-1.5115305282,-2.3982395577,0.1650662621,0.1848272202,0.7330656545,0.3434839382,-1.0625891921,0.6781752792,-0.7012859844,-0.9571867578,-0.4516136159,3.8253493384,-0.4113533714,-0.6561177156,2.5434738768,0.9556400501,-0.7407311315,1.839606481,0.1692052568,-0.0199985498,-1.4000902117,0.1118624693,-0.1800202917,0.7724931008,8.5971147428,0.5426858789,-0.7556832897,-0.0624826191,-0.7443711451,-0.132103735,-1.2154312521,0.5059269537,-0.4279556192,-0.137765721,-2.6758096979,0.27862786,-0.3489254883,0.1898816546,1.4392746036,-0.7476658936,0.038214446,-0.1328551559,-4.9933339122,-0.5538341012,0.613843934,-10.4204873923,-4.2072618955,0.9364592522,-0.9460156988,-6.2050578486,-0.210497376,0.3566973635,0.640586918,-1.7865555117,-0.887692672,-2.3482027061,1.8018290403,0.7484044814,-0.8875608989,0.3795527389,1.1190970721,0.0214519355,0.3031019612,-0.8471569824,-1.708712683,0.7293052098,-0.5421794742,1.867262172,0.3150853036,-12.7506739062,-0.7659625704,0.8143557117,0.1621633663,-0.3625678219,-0.8241549342,0.594827931,-0.7048526474,-7.9971895868,-0.1851895096,-0.7719226482,-0.0679515694,0.1612367865,-0.1785003488,0.2917501233,0.734171179,-2.0487662277,-2.5485587298,-0.469637301,0.0195746457,0.3845537893,-1.2717747688,-0.4709325832,0.4058223151,0.7250718652,0.6436058568,-2.4012514851,0.1360956101,0.4164325489,1.1173486256,-0.7211515209,0.8488002372,0.7695329464,0.1390281238,-1.0164200282,-0.7189197204,-0.9574842921,-1.9789250485,-0.2037466508,0.1463029031,-0.6883059417,0.3456318847,-0.0192491722,-0.0636414358,0.4117111358,0.2325717152,0.6444598792,0.5117238722,-0.7195449253,-0.2999703264,0.2355240489,0.9152191734,-0.7348199118,0.7411469198,0.3905289242,0.0241782568,0.4858769977,1.2363731494,1.6701309397,0.0078627284,-0.0561664309,0.3186228985,0.6569916938,0.3845806422,1.4609837795,0.8810130084,0.1142845331,0.7603402001,-0.459748375,-0.3672642982,0.0815014579,-0.1639219301,0.2154496058,0.7604395393,-4.8539049995,0.2440689848,0.3476485068,0.8247361147,0.7849134306,1.482905961,1.3424872448,-0.7126343797,-0.0655783788,-0.8215587738,-0.3392528969,-0.3577720194,1.0438805188,-0.1568834833,2.380364356,1.2030256086,0.7922432824,0.9375553257,0.5576950622,0.2689449235,0.6463506623,-0.4018467842,0.9239814872,0.7013097642,-0.0664706207,0.8539513408,-0.1073106277,0.8027570015,0.0852179708,6.5362804677,1.1144643575,0.5110096131,1.1542540946,1.4891754056,0.8037750186,-0.4450568791,-0.1446191962,1.3643644319,0.335589111,-0.0058072072,0.293963019,0.5808253648,-0.5733414306,0.2325186402,1.0977447649,-0.6270006729,1.8433714514,0.5089823516,0.449091888,6.5122895555,-1.5742182772,-0.6879387923,-0.4034259251,0.2399094046,0.2703285876,0.7530382148,0.9677912444,0.8449550676,-0.1188304502,-0.7348738463,-0.1077676744,-1.281914478,-0.1620196257,0.6601165758,0.6022281847,0.7962438429,1.6704066754,-0.5400082271,0.9163770115,0.6191965166,-2.7896972623,-0.6913256916,0.4949905779,-1.0869929346,0.1210550005,2.2463150554,-0.3832656797,-0.4126279791,-0.1476682009,0.365909569,-0.3730803314,0.1335245845,1.020704377,-0.2044759817,0.5438482788,-0.5649218095,1.3476187711,0.3292442361,-0.8999092225,-0.0758948922,-0.4032946611,-0.491913617,1.0650356215,-0.78879587,0.486562468,0.4850674181,0.520254717,0.1797649515,0.5094338308,-0.0592885897,0.8369666087,-0.8718444719,1.3549737891,-0.0063766481,-0.1946064003,0.0022259554,0.6501478651,-0.6378598614,0.6916730329,-0.4624259143,-0.7521532183,-1.0193491823,-2.9160847298,0.9723561325,1.105785527,-0.9007914211,-0.495523478,0.7494746134,1.142882612,-1.9466365837,1.0180670544,0.0089200834,-0.0927402331,-31.8363507881,0.6571449766,0.0942105655,1.1515651562,-2.5071743056,1.3410488751,-0.5116610442,0.5526811302,-3.6055963294,-1.8377971547,1.0427573402,0.9074163233,0.936678108,0.1860230405,-0.0395435311,0.9279639683,-0.5835654829,0.4631468046,-0.7357695286,1.3565577171,0.4588086757,-1.3724351961,-0.2115037922,0.2771579002,1.6527843275,-1.161920266,0.6628628596,0.7007805809,-0.7954568284,-5.1721197729,2.2644524374,0.4345878198,-1.1779817317,-0.8808317148,-0.8551494062,0.2429080738,-0.9669149872,1.9806583239,-1.0557662854,-0.2052349949,-1.0231753085,-8.1075000174,0.0983900833,-0.4908605512,-0.6938420153,-0.3591647741,2.6687049748,-0.2930868941,-1.0002011184,-0.2311182039,-9.3824836151,0.8998086203,0.7481003046,-0.9026428682,-2.2327308779,0.3575893251,0.1850871427,-0.7084977026,0.8837381067,0.2841348895,0.7938170458,0.3774948228,0.0550190894,0.3443536953,0.3527091987,-0.5142607421,1.7163585731,0.8100579962,0.4825720461,0.0581844148,-62.7370258326,0.4597864379,0.3551727785,-0.0504888906,-0.2419293062,-0.1464148742,0.1874202881,0.4321753412,-1.0138108986,-0.0949155735,0.863550377,0.5290687673,-1329.8006178499,-0.5151881752,1.0123387916,0.0789598954,-2.7400575237,-5.0253763905,0.5848523258,0.6231859454,-442.5790454489,1.9722088682,0.3962951521,-0.997851316,0.0526825341,0.0434456884,-0.437314324,-1.1983792115,-7.5451958518,-16.4967245365,0.1588237934,0.7221143981,0.3918369535,-1.9486196379,0.3233493012,-1.5650668538,-23.2696315126,-1.0813101584,0.134157691,-9.4219033517,0.6586090689,1.3883627131,2.2243483921,0.6956873278,-0.7890370577,-4.3544986765,1.1757346439,0.0275084239,0.2250146038,-0.6060061171,1.6364018453,-0.0381456207,0.5280624753,-0.4811562519,0.0794851732,-0.9081328366,0.1672297611,0.3638069477,-0.3669910775,-0.1288496188,1.1879916885,-0.3778542343,31.5670396317,-1.6575898019,1.8687818152,0.9907370375,-0.2988077042,-0.2546869032,-0.2699468096,-2.087850373,0.2175483744,0.4658493065,0.3182154422,0.7129800189,3.7272950554,0.6745848145,-2.4434206345,-5.867902966,-3.0183940037,-0.6565641761,-1.7917972575,0.1514518604,-0.1047128645,1.0390550683,0.319011946,-0.3882603471,-0.2529018151,0.7652742101,-1.927613893,-0.5610783907,0.6568171898,0.6841617976,-0.6272633185,0.1118332015,-0.7521868115,-0.6707483258,0.9012541165,0.6000635214,-0.0367573031,0.7339264001,-0.321192825,-0.5629979803,-0.0054905557,-0.2558644157,0.3972230835,0.6262716166,-0.2182804857,0.8872767792,-0.5991535429,0.5171897674,-0.410637423,0.8650850731,0.0119074148,-0.1850958739,-0.895098379,-0.9579694279,0.4337676058,0.1410191604,-0.9251786456,0.2361729749,-0.7480733829,-0.4241703215,1.1635207005,1996.9361247412,-0.704574407,-0.3254081156,51.5153055908,28.4544805428,-0.1558065035,-0.3213923878,0.981440123,34.2494459017,-0.8885728277,0.2579685699,0.8229770107,-532.0534502933,0.4180335794,0.2912690455,0.3411948995,-0.5099111773,0.5189991844,-0.7875829455,0.1900479791,2.6547632258,-1.1528010945,-0.1015057159,-0.0956957887,1.0382383462,0.0928263289,0.0485899715,-0.7456339118,-0.6561717304,0.3580075887,0.269391394,-0.146796103,-50.5343702581,0.7166904095,0.4913619247,0.5865428862,0.9313143655,4.894327547,-1.9608005256,0.0516574671,0.8344961403,1.8371255825,-0.319262434,1.3402671642,3.991625656,1.0272516657,-0.2635336899,0.2899357535,-0.2063636189,0.4404772451,0.1222844875,-0.3222361983,1.0192412999,-0.6121959731,-0.4657770986,1.1301674348,-0.6391048451,-1.0385300282,0.1345475392,0.2431167293,0.0847214217,0.0853839565,-0.4359320079,0.0859599113,1.1099077037,0.6979751049,-0.7304591474,0.5211180679,-0.6753163508,-1.0343575202,3.6529809336,1.2303611472,0.5127961377,-12.1680471985,4.3005224233,0.3248702726,-0.7752572321,-0.3944852794,-1.4354668382,-2.3806497899,-1.2517665582,1.0550774358,-1.4712599439,-0.2137981145,-0.5781207883,-0.8754364188,-0.8896230512,0.7955335908,0.2200815501,0.8773852482,0.1520332296,0.7853491287,0.8319329001,0.1443308206,3.5894614731,-0.8693999935,-0.1002804383,1.0872710172,0.2506137798,-1.4921003138,-0.9474084407,0.8616070797,-0.5880285974,8.3854598004,-1.0729383389,0.488407482,-0.7872441578,2.128713651,0.2568323213,0.1016211251,-1.3102279838,16.0527338514,0.7712948179,0.3955312178,0.0288936601,12.5761656957,-0.4392077212,1.3963509164,-5.1402789506,2.5804146268,-0.3956249621,-0.2047669426,0.5211555899,8.1861334188,-0.1190440805,-0.0673004856,-0.4364850605,0.2916359632,-1.209098471,1.0342497462,-0.4290226018,-0.5152485166,-0.7710488914,0.4488804576,0.3044051027,0.2600498407,-0.7455080858,0.0457135268,0.7575094886,0.3644385946,0.9136453075,1.0521145013,-0.4173488714,0.0718972352,-0.4169757894,1.1579006013,0.2508464578,-0.5833666943,-0.4399947283,0.0449342885,0.8944809495,-0.0843363142,1.2215146766,0.0326350966,0.1345235176,-1.0715621044,-0.3947721408,0.5327301499,-0.5463291517,-0.0919554351,-1.0394915202,-0.8906574364,-0.624919731,-0.2007112784,0.9357281182,-0.3500805387,0.788326021,1.2261647301,-0.2960567405,0.6958256786,-0.6343275897,0.4902944011,-0.6771581144,0.9900007266,0.0147100579,0.2367341934,-1.0136131566,0.5573668452,0.4917304212,-0.7201820539,0.8761649066,-0.2510060417,0.1712243618,-0.6280493777,0.113449736,-2.2489860861,0.5377779896,0.1378473716,0.3795955552,0.3708468786,-0.6889133242,0.5702717462,0.611016023,-0.4813511243,0.1969777122,-0.6620075124,0.2592159342,-0.7681118307,-1.1157921544,-0.3619367411,-0.8920358294,0.3124944969,-1.3384424853,-0.4655103327,0.6085757629,0.7725669807,-0.0349027284,0.1500962085,2.522901809,-0.4641403097,-0.2154010647,0.5471454935,0.6785008249,3.2612395327,-0.1888612516,-0.4979770077,0.2845184847,-1.4436605484,-0.9671564957,-0.0311385103,0.3210733738,-0.3867999436,0.1355679788,0.4922505822,0.7972037321,-1.7621073278,0.2433503371,-0.6458658186,0.5567336146,0.5782350866,-0.8514503505,1.0180155955,-0.5192578644,0.7242620743,-0.5854185686,-0.8120707476,0.9504044513,-1.9090593025,-0.6250826013,0.0434380477,0.524508981,0.1902963258,-0.562814814,-1.0482944061,-0.5427079359,0.9810094584,0.6062002099,0.7421108083,1.6491997162,0.262749921,0.7987616718,0.0988989828,-0.0489530539,0.6260270012,-0.2503775006,-0.678246289,0.9939605971,0.9421508325,-180.8810553573,-0.0631618989,-0.1564694841,-0.1907148334,-272.8873558814,0.2882870814,1.3944252546,0.4665846918,-11.0366095573,-0.2053136034,1.2837355032,0.8559542094,-66.1835009934,-0.7333955772,0.6089234912,-0.6009661686,0.099561322,-0.2344032934,-0.5165436538,-0.2841683473,-93.3365686233,-0.3325205511,-0.9907300624,0.0745534287,-1.5844176163,-0.0928641731,4.4271106667,0.5332155204,-0.0392622265,-0.5602604425,1.1015476265,0.8596437795,0.1278679079,-0.6903673928,-0.0069336882,0.0252762526,-0.4880927161,-0.2137065688,-0.4492692338,0.1083929083,0.6343452441,1.205944165,0.2972807671,0.3287975376,-0.774468783,-0.4693628977,0.0106640514,1.2973784789,-0.7973608526,-0.2382766242,-0.455413165,-3.0133643568,-0.4325216543,-0.0885369569,-0.1999004821,-1.1060188488,-0.7898380069,0.3096687382,0.6714112665,3.6780046082,-0.5422227144,0.4157868343,1.2446155035,0.6106176445,-0.1783991338,0.0252127746,1.6198988237,3.4696580114,0.5683480299,-0.8021481365,-4.6488371606,-0.6377875307,0.1861648785,-0.7141882001,-7.2611626352,0.36318552,-0.0713492943,0.9222408154,-0.9659825507,42.0371541066,-0.4505558289,-0.7243028104,-13.9448075394,-0.3266306856,-0.3940605671,-0.173597243,1.6492378307,0.3111820584,-0.77646968,1.0512332095,4.7438622677,2.8908318939,-0.3108759647,-0.6375734582,0.288167513,0.3730729364,-0.753214956,0.0911516572,0.059695665,2.6035586736,-0.2727050153,0.3442959816,0.7732722186,-1.3186115562,-0.2566930425,1.8646943684,-9.2845737737,1.427359949,-5.0946105851,-0.4411996757,-0.4697080213,2.8641091108,-0.7854440714,0.1982531666,-3.5020602406,1.1538265006,0.2060909381,1.2343533198,-0.7749364992,2.0990777212,-9.0133890636,0.1731452759,-0.7870560119,3.8145607004,-1.1308839464,0.4227692132,0.4035055501,0.9441358623,1.6179963801,-0.796334499,0.6500831186,1.46239055,-5.6792752768,-0.7799672658,-0.6439458369,1.2078431297,0.3544008365,0.7864908907,-0.0042647287,1.5608201827,0.1755691146,-0.8060630563,0.9593367355,0.6981147501,-0.4911233605,-0.6967258163,-0.356841501,8.2347672175,0.0323705678,0.0372334541,1.2655986128,-0.4708232746,-0.7268968198,2.0617562374,-1.3958910517,0.3193376864,-1.264219911,-0.6664947104,-1.0581299451,-0.1430218846,-0.9916161056,1.9309576359,-1.1431635911,0.6682969679,-32.0710298993,0.6305030905,0.525631136,-0.0028924062,-1.685959154,2.0336067543,-0.66490583,0.2158337834,0.3110699233,0.6747474392,-0.9115523739,-0.5331444493,-0.5738866717,1.3467941473,-1.8851596779,0.3274176423,-0.726556961,3.163926824,-0.817472134,-0.7578914689,-0.5403270803,1.035862055,0.2431984515,-0.4913295284,4.7502957184,12.9135311081,-0.8836494564,-1.1043146386,0.540762275,0.9159994195,-0.2692561404,0.9522030252,-0.9313493234,-1.2369096821,-0.378715719,-0.1538501661,0.3613760328,-0.1559552671,-0.168662565,0.7681415505,-0.6534986319,-3.3801578099,0.5968315313,0.1727227367,-0.7535052019,-0.7910477409,0.0066298982,15.3743850933,-0.739236677,-0.3576567189,-5.172084436,1.4822459124,-1.0777602656,0.6365821435,0.5721227312,1.3763775715,-0.3017054261,-0.3346824994,-0.279126548,0.1889540655,-0.60890896,0.4433242603,0.7731956661,-0.6071203021,-0.2662521155,-0.1769035575,-0.2774105103,-0.2344161115,-1.118906685,-0.8418462126,-87.6320200691,2.2772313553,-1.0104657631,-8.3522976721,-18.1202122473,0.6571187984,-0.876805934,-1.7444577462,-9.6282442346,1.3930854342,0.9539481474,-0.8183757518,-1.2715003409,0.5546824353,0.531847945,-1.6369405984,0.0338305073,-0.5056234202,0.2325673405,0.0362753995,7.3415487724,4.6038605919,-0.0603957262,-0.6359146916,-0.3634419192,0.8132568474,0.1754633126,0.3189213087,-1.3128770435,-0.0879472264,0.7169672354,-0.6861721398,0.7258335135,1.0125074702,0.7842497186,0.1179448706,-1.8320231016,1.0119133697,0.5062093291,-0.7567758369,-0.1872518279,0.1040393534,-2.0765264295,-0.5575409367,0.0602635681,0.1951808331,0.1773731719,0.7475263325,-0.7535412254,1.0774835075,-0.8432787682,-0.0864397229,-0.8072406148,0.7776139186,-1.0511508791,0.040343818,0.0148314248,-1.3318384733,-0.5868984881,0.2884680161,0.4962716446,-0.8956563663,-2.4717105316,1.0211132388,0.6909287223,0.289376266,0.0901883605,0.0743247143,0.1449734303,-2.0880102407,0.524470278,-0.0300644564,-0.2328904477,-0.7047034254,-0.2791886589,0.1470445425,-0.4303018141,-0.0857517365,1.0363937785,0.5755341841,-0.3062631964,-0.8521525707,0.1307783619,-11.6418004335,0.39310336,1.4955824293,-0.7589814106,0.0662341545,-0.1706687247,1.6338841425,0.6229968264,-0.2201626547,-0.0744434784,1.3824931106,-0.8596139869,2.8341486486,-0.4482072508,0.3226440298,0.1465739024,4.2362314536,0.7787637297,-0.2859408288,-0.1005510016,-5.2082781724,-0.9350320086,0.8077779605,1.7558458466,0.836059451,-0.038103286,6.2788254889,1.899021681,0.6093646731,0.0083716546,3.6315751745,1.8668635033,-1.7445324314,-0.7958634716,0.2888104197,18.7446847609,-0.1510703756,-0.8575496541,0.3143808348,-0.2345820551,1.9151888896,1.0578626505,1.0863156835,-0.1991717435,-1.1386146345,0.9924716434,0.869583353,-0.3816714025,-0.6191488802,-0.5504525584,-0.7197788515,-0.1125582297,1.6400482985,1.1461919826,-0.7604038677,-0.0856556553,3.3687425823,0.5814548434,-0.4369082238,1.1434958709,4.7384569165,3.211089089,0.3645896384,0.7042957076,2.4238421113,1.140011714,-0.2235736468,0.840978884,6.6086920223,4.5570710276,0.8993714825,-0.2272103547,7.7616300021,2.187440248,-0.6820244107,0.4973162796,0.2407727589,6.7795860551,0.4124528661,0.1153624475,-1.0526230957,1.0605948399,-0.2637576991,-0.0338156771,0.7176008917,-1.2548272365,-0.4805993997,0.2095455503,-0.4931579422,-0.5002881762,0.7982377417,0.6025738011,0.7379745122,-4.8352463031,-0.6701136781,-0.8129691558,0.6786235906,0.2645640432,-0.7266466426,0.5776344162,0.6236535617,0.655816587,-0.0265545908,0.9091149787,-0.436051715,-0.5186389564,1.1573896177,0.7013148482,-0.3583369277,-0.0346146791,0.7441407211,1.2017730645,-0.2325618083,-0.3747531592,-0.0877492463,1.3259399531,-1.414657543,0.7466011897,0.052996524,1.1771636845,-2.9121390598,0.7219686223,-2.1533168336,0.9309234751,0.9011241482,0.9878729437,-0.8566246808,0.4954665369,1.7882700716,0.2826996753,2.7174789707,-0.4824505934,0.2981458626,0.9139581053,-1.0477317236,0.9332649377,-0.0951996762,0.5011386683,0.8652026552,0.1492658218,-1.745925379,0.4370359274,-0.0543513851,0.8439752649,0.8966455467,-0.9306866697,-0.6052570542,-0.1229586628,0.428062784,0.8326960766,-1.060370924,-1.952382726,0.3850719251,-0.966868042,1.9274896722,-0.6054247761,0.3919051708,-1.0761241362,-0.9684588917,1.6103661383,1.8149413607,-0.0503627325,-0.5585838878,11.2831391544,0.0404271715,0.7149531472,0.2820721725,4.344180758,-0.3769774886,-0.5667052008,0.3665829668,1.2376711928,7.0426652859,-0.3592339672,0.5256806924,0.2152222809,0.217078206,1.0631283998,0.0211530451,0.538808374,4.6182989885,-0.3646115652,0.9246023862,1.3438888833,-6.3872949123,0.2201635795,0.4652360614,2.0116597022,0.8418159187,0.4558682717,0.9232576396,-0.4898644218,0.7324498782,-0.6677810481,0.3084525105,-0.8190395461,-2.1352909542,-0.9652001253,1.273554079,2.0989347894,-1.8785721819,-0.64503602,0.5490914438,-0.3744254715,0.902635384,0.8893828408,0.0273081358,-0.0926510702,0.1174775888,0.4896495609,-0.1806993847,0.0275780469,-0.4206326175,-1.4052145137,0.0988099047,-0.221654672,-1.2528433652,0.9319919388,0.4593983824,-1.2206430251,-0.1244528395,8.1590516732,0.9110449487,-0.3462896134,-0.3578197973,-0.3682928706,-0.3362812319,-0.7257277743,-0.2285450966,-0.3708965116,1.0904762104,-0.8906263311,0.5848160791,1.2234114036,-0.0382924024,-0.2100510772,-0.3050921488,-0.0793589963,-0.0552146228,0.0423894273,0.9427940743,5.4583976944
   0.5919605697,-0.8170718638,0.0736712332,-0.8922005453,-0.5053956608,0.6460821098,-0.9518683807,-0.2082401778,-0.0441703353,-0.0394095601,0.127498416,0.0806621639,0.2603224264,-0.773955728,-1.0810114943,3.8272266725,0.7023091324,-0.4040119032,-0.6713155412,0.2494431137,-4.1326628815,-1.2093073167,-1.0952809365,-0.5327406308,1.2402248221,0.5504414763,0.5051790122,-0.7591181733,0.1625708661,-1.1504695302,0.4260091299,-0.6684155915,-0.2939946244,-0.7121546902,-0.3296562128,-0.911541596,0.742380357,-0.0564770731,0.0338806179,-3.3451799568,0.0737704247,0.4077124817,-0.6558053929,0.8289106137,0.0790985244,-0.389517158,-0.6402374787,-5.7317434648,0.0838106554,0.9721430993,0.2816647544,-1.0309618492,0.528051556,0.9109501869,-0.1602660827,-1.1405252711,-0.3093077438,0.458747356,-0.6069684401,-0.6484058198,1.0159582249,-0.3580812706,-0.8834974483,-1.1215641889,1.4510467577,0.0953788083,0.2116426688,-0.4559991742,0.2882632607,-0.5005677847,0.3338813501,0.8448655643,-0.0886935182,0.5106788769,-0.2926142198,-0.9660054418,-0.8850992534,0.4671999565,-0.7124568185,-0.5188645069,-1.1874019875,1.0494287374,-0.0607293118,-0.3242957088,0.5464889089,-0.7308653788,0.8411500277,0.3033741242,0.5828439846,0.5538064989,-2.4339473829,-0.4468334383,0.6155889773,1.0439313799,-0.2805604092,-0.3485506712,-0.1692212513,-6.175552599,-1.6265901799,-0.5865216973,-0.4473491438,0.907636068,1.2785624653,0.3670349116,0.5952241218,-0.7645029338,0.4905225715,-0.2437377523,1.3937976221,0.4454933098,-0.177771335,0.13982157,0.7365924073,0.3876349695,-0.1028215012,-0.6238656928,-0.5017605692,1.7497685973,-0.0202136531,-0.0307039496,-0.8223387886,0.5243603562,-0.6166491486,0.975337728,0.4352354322,-0.2541080333,0.9598155331,-2.7492579835,-0.6070411054,-0.5619929301,12.6251315956,0.6548022579,0.87913388,0.8756741625,8.0995806495,-5.6041717916,0.8506114541,-0.1584924993,2.1996241019,1.2819124303,0.3931016107,-1.0185367371,1.069237854,0.9039509952,-0.0531635393,-0.9849025777,1.5267106566,-10.2556904491,-0.17992824,-0.3208748943,1.5261724906,0.1749035735,0.6005459246,-0.3087950693,1.2138258005,0.0438756505,0.5243768286,0.1867362329,1.4040787727,-0.9878870076,-0.5597777228,0.7186413404,8.5661575936,-1.212330036,0.5461384948,0.3035467052,-0.3429684922,5.2027272803,0.608958896,0.0503781002,3.9246395641,1.1324631656,0.8378633483,0.0716718946,1.7581649843,0.2069532065,0.701348346,1.1887801353,1.6282418493,-5.0452454873,-0.4045456791,-0.47536584,0.4753682468,-0.5699843671,1.6005941975,-0.1698026972,0.7932175558,-14.5057467391,-0.4261651667,-0.2130446653,0.6032290537,-0.4960688676,0.4601405857,0.6479628039,4.0960804403,-0.313908783,0.0820404147,-0.9745540958,3.6282987359,0.3254881233,-0.2004934176,0.6485683603,9.071291842,0.0689721399,-0.1581769014,-0.2743831956,1.9899644594,0.3227857846,0.059394478,1.0226325454,-0.2828692759,-0.3289865521,0.7845096722,-0.1003845604,0.0571614589,-0.2529207374,0.709229296,-0.115491951,1.0285795045,-0.8595977447,-3.3575089387,-0.6966487629,0.6551189343,-0.0037285241,-1.0714745849,0.0230507917,-0.4127311602,0.780700297,1.1020307694,-2.7635905136,0.7022249732,-0.5932247248,0.3878584232,1.2182820819,1.2618265954,-0.6240204197,0.0760112305,0.6206237517,-0.8340908325,0.7831481,-0.4932094951,0.463368828,-0.0819436623,0.7625302661,0.6179452119,-0.7470898923,0.2257415601,0.0440533086,-0.4876533705,-0.2816038009,0.6221489812,-0.1492229953,0.0170700411,0.2165373169,-0.5109204287,-0.8048750818,-0.6953115009,0.504527298,-1.5797735071,-0.6977380848,0.6473585523,-1.9982177577,-0.0090665149,-0.6287857886,0.4027111466,-0.4635588735,-0.339007031,0.3909511582,0.9165133771,0.6507066978,-1.0656572368,-0.4059269508,-0.1264676312,-0.805475977,0.5243738531,-0.6795433054,1.0226400839,-0.3115228763,0.58879372,0.2364398234,1.1826641687,-0.2350395367,-0.6263757017,0.8938871089,-0.1768550838,-0.8868260671,0.1406974207,0.6378077805,0.5367258444,-0.0672268292,0.0507304485,0.6315740542,-0.5706065261,9.7946154599,-0.1956043215,0.3734191927,0.6892214154,6.6286708716,0.0721334133,3.8457726772,-0.8016165663,-0.1547414294,5.270695562,-0.4033114965,-0.6985360549,0.1299920027,0.9410302506,0.9301107388,0.8287579453,-1.7396759566,0.0619002308,2.8920708412,0.1912043072,-3.848364797,-0.1371105655,-0.1594321178,0.8033858305,-1.5836545882,0.6698009102,0.9827244708,-0.3011849642,-2.6337560659,-0.4648684684,4.9089962786,0.6094334823,-4.8215939563,-0.0836583158,13.4058090302,-0.651311826,-3.1758492611,-0.3875699911,-0.0517030162,-0.2364823534,-1.0331721623,-0.8535498837,0.2747406634,-0.1194286807,-0.237192459,0.0094341531,0.1269035645,-3.4771139663,0.6868603682,0.4950663269,-39.4606640851,-2.2963749863,-0.522779378,-0.5752161118,-0.8843969522,0.9920419467,-0.743066253,-0.8971851894,0.0390077698,-1.1173190813,-0.4264499921,0.5559540534,-0.9119934279,0.8273832084,0.6054777255,0.8037608199,0.7384605352,0.574080174,0.7634875858,-0.271781364,-0.2439998482,-2.9546260297,-0.2102496116,1.3300625087,-0.0571456371,-0.1248404618,-0.4872794276,0.0874073866,-0.6815427488,5.9633650191,2.122229278,-0.0841349554,0.9650999269,14.6356621822,0.3807931265,0.1880609032,0.1756223259,-0.1219432514,0.1910467417,0.7082922984,-0.4383288794,0.6674038831,0.3016756075,-0.0917304079,0.3380983106,0.1270762618,-0.5645843319,-0.6574925632,-0.289560302,1.0885805348,0.2418542629,0.8826776791,-0.4832011931,2.2612749536,-0.9654242934,0.4271138255,0.2620639586,0.0290465995,1.2552938029,0.6403907162,0.4193297183,1.1687540717,-1.965634236,0.1963804988,0.7140553717,-10.7345147369,-0.7828962481,0.4274994067,0.8322169487,-0.4441556146,1.7877987482,-0.6580260602,-0.4948500141,0.9010694095,-0.7304585443,-0.5676079543,0.180911253,0.7422941086,-0.373452671,0.9457082522,0.4823072074,-0.6587237985,0.7685928223,0.7807967859,0.2990863091,0.8507502086,-0.8211305132,0.1344636024,-0.1245140542,-0.369406099,0.6308033656,0.036684739,0.7915106966,1.0165186426,0.8095380032,-0.896965345,-1.2733417729,0.7081248115,-0.1541621108,0.1718332716,0.0591325074,-0.7428455309,0.9484934985,0.6490754952,0.8143959492,0.6793548996,-0.12685065,-0.8605110035,-3.6548416904,-0.2209200969,0.1844872128
##end
biasActivation=0,1,1,1
[BASIC:ACTIVATION]
"ActivationSigmoid"
"ActivationSigmoid"
"ActivationSigmoid"
"ActivationLinear"
