encog,BasicNetwork,java,3.4.0,1,63642540049454
[BASIC]
[BASIC:PARAMS]
[BASIC:NETWORK]
beginTraining=0
connectionLimit=0
contextTargetOffset=0,0,0,0
contextTargetSize=0,0,0,0
endTraining=3
hasContext=f
inputCount=40
layerCounts=2,21,161,41
layerFeedCounts=2,20,160,40
layerContextCount=0,0,0,0
layerIndex=0,2,23,184
output=0.0619257750487795,0.917051219652601,0.00063469974880304,0.0832999654734921,0.0469144727868981,0.0696767276359236,0.581262739884556,0.983680074132477,0.94024889164195,0.998853000740448,0.739418133871916,0.153866114539812,0.0143745362003206,0.608480900904709,0.564056765247416,0.231404350148651,0.36748722000099,0.0527022263494458,0.0133806901894667,0.000312352018301715,0.000272934196916078,0.663924131004783,1,0.775878056785925,0.000654743617974856,0.00000813283566106787,0.000315001982988597,0.0318614715113003,0.709899491097063,0.000526628843122711,0.433086463219238,0.86346447130548,0.569429004128704,0.204316967230249,0.00108586335395981,0.185564771625167,0.989773317610737,0.298936543773521,0.716087097264501,0.00000000000000000001,0.0590147984305108,0.531515624854565,0.303650489555152,0.109068742576703,0.0252979574627516,0.401185246516571,0.190339411929593,0.361337484691792,0.999999999999717,0.162190454590912,0.0147112732985025,0.990409052537996,0.3214561402194,0.817740771074662,0.0487901615136892,0.236065944581464,0.00359688745483319,0.00000714144685757502,0.00432006040246022,0.764759686547038,0.0350345819999129,0.212683011619879,0.0227771140381733,0.112070260417119,0.843846364563617,0.992696732444657,0.470434277114959,0.297254894600974,0.00000664000441227951,0.997289212446033,0.916663519197318,0.929620954606234,0.0154378695418951,0.653382751474091,0.965705668530305,0.082017044718463,0.00716251574806733,0.310596351966774,0.997671555302366,0.844392069659357,0.4790849393555,0.0802403612052522,0.0922541513408881,0.580231030951959,0.949213667215616,0.0115275718200729,0.744826764794886,0.562965696036806,0.415338676435322,0.00142960892123057,0.337108718597259,0.0651790898261644,0.999983005928537,0.121887270755885,0.770185941183471,0.0430776770997061,0.00329178700635091,0.812070129325841,0.167553401910545,0.464294990838525,0.00000148396860996725,0.522827027845142,0.621964949312265,0.571645445172284,0.0464798600276955,0.0583425435384032,0.12034063194842,0.00494333049770519,0.992884909228762,0.999999999391629,0.985421815849564,0.674131892460284,0.515073894428231,0.863750841494635,0.00287188284522697,1,0.0721374420268667,0.954670917981155,0.121853036202404,0.500029787995488,0.000289907451180169,0.694076578720084,0.990125199589651,0.782356881902709,0.0328898175027145,0.314290227808148,0.0798316774942884,0.0360514433528228,0.522152923526617,0.992575578521533,0.30916443478767,0.0762450729884427,0.334959654355245,0.998810633210913,0.991037436689142,0.000541333846115671,0.00000000000010557212,0.143478401051152,0.0492465491005324,0.0104758644999767,0.182275510739951,0.0000833744276402939,0.999849773475864,0.666502778863099,0.0016586096758312,0.950093254771075,0.986060800086758,0.00252634192921515,0.000210885658266625,0.00000027194384952425,0.00000043777655478141,0.994919992983143,0.0172103759159982,0.990494347760474,0.0276309697989119,0.996478694031805,0.0000241704156644428,0.632306564825911,0.997436713585576,0.999466818259014,0.260121847481194,0.547256846048751,0.224181100580321,0.0000124571415617117,0.657153056868874,0.984513778069499,0.0222510451255285,0.840191996536776,0.333915739813462,0.00000000000016053574,0.00206628022206123,0.00188406096171465,0.00000726550257081361,0.998483891852123,0.993520975152215,0.00000000000021780109,0.00420545082975328,0.990956002718779,0.00000000000000000001,0.94116847406771,0.0789577106839669,0.21659949656942,0.00470911148790442,1,0.4105,0.862,-0.603,0.5093,0.4925,0.751,-0.614,0.5147,0.429,0.815,-0.6125,0.5195,0.43,0.8295,-0.617,0.5251,0.433,0.775,-0.624,0.5314,0.4255,0.803,-0.6455,0.5367,0.46,0.8465,-0.7935,0.5438,0.4155,0.8495,-0.75,0.5508,0.4665,0.824,-0.7875,0.5581,0.4335,0.847,-0.795,0.5652,1
outputCount=2
weightIndex=0,42,3262,9822
weights=##0
##double#9822
   -5.6387692962,-0.0647163719,-1.6953188556,0.4935132955,0.8590332346,0.3325089172,0.6187095225,-0.6871005163,-7.083632804,5.5596820945,-0.0075025202,0.0442003191,12.1751890872,1.3187205394,-7.9765321172,0.0684224286,27.2429380872,-0.8660510588,2.7895872715,-5.4821895821,-0.0003265305,6.0331931944,1.1240393924,1.7793721884,0.5443664254,0.377679815,0.5376505751,-0.111885308,-0.0072183844,6.7171587514,-6.9079986313,-0.637975527,-0.5233161515,-11.8445252787,-0.73670117,7.3047167018,0.2744546653,-27.1940173003,0.2901356519,-2.5157829013,4.2889937704,-0.3587001473,0.7740143527,-0.7767271703,-0.6668755336,0.0425852568,0.2287706382,0.5864031214,0.6015600254,-1.015437913,-1.8894174999,0.6590238746,0.9334116519,-0.662647829,-0.1544464199,-0.8263821931,-0.273141483,0.377910594,-0.4545470237,-0.1594446571,-0.7594568487,0.1791336991,0.6782938871,-0.5785654633,0.1223969255,-0.0871312433,0.3309762913,0.5528550617,-2.5128837929,1.030746703,-0.5098338799,-1.101355294,-0.5466202118,-0.8456065996,0.0924685007,0.4170376143,-0.9413738182,-0.6379107493,-0.2462390076,1.0927992859,-0.7808924757,1.0137906941,0.1761816528,-0.8886669514,0.0538095578,0.0322456956,-0.4228595437,-0.4880353613,-0.5249670738,-0.374716652,-0.9959207042,0.1044962412,0.4750939554,-0.3467357972,-0.0262951305,0.9381312527,-0.1394765968,-0.2661491744,0.3401613097,-0.2981444712,-0.8240835778,-0.2278295222,0.5079496179,0.0737709262,0.8517352901,0.2936595473,-0.8656834315,0.1877709829,-0.4496716394,-0.6848499341,1.1364265459,-0.8004188477,0.1404881986,-0.0613447653,0.8785512571,0.9021601558,0.4972742014,0.780701704,0.766928004,-0.9640314207,0.6680672445,0.3730286405,-0.6296891917,-0.7741634587,-0.6843389604,0.5475505448,0.7362391211,-0.5780326564,-1.0650940896,0.1858959399,0.6704664085,-0.3438671799,-0.8986725469,0.220721791,0.640612708,-0.546791922,0.6026480102,0.0155024479,0.2401772398,-0.2759973615,-0.716254121,-0.8429486271,0.3372726881,-0.3187804176,-0.9073161124,-0.252533534,0.3735216465,0.0364006892,-0.4221331014,-0.5920510939,0.6684731256,-0.6115153521,0.8188961523,0.4543861525,-0.6114085214,0.7837292026,0.2579867955,-0.5052065226,0.4340402673,-0.6086802335,0.9256875086,-0.5946109788,0.3308935407,-0.60489969,0.2881746395,0.6542793803,1.012151644,-0.3261784104,-0.0860407639,-0.4214859868,-0.175206598,-0.1513152791,0.0478876672,0.1526382197,0.017491481,-0.1675086371,0.403343817,-0.3655634851,0.4351165333,-0.3110568922,0.6467549764,0.5424704517,0.0888729151,-0.0333622317,-0.8882405667,0.0315347422,0.9037375168,-0.7488900388,1.8990105419,0.7689931018,0.7383335588,0.150946585,0.0247840455,-0.8819633552,-0.8138592086,0.7258072683,0.5508172615,-0.9161571508,-0.0442586326,-0.6575355289,0.1173146327,0.9851503516,-0.9254531943,0.1770483132,0.9082689182,-0.5779665274,-0.7669294488,0.900517982,0.9335014099,-0.8665892985,-0.7759781549,0.4950645942,-0.6134817952,-0.3747959957,0.9981018384,0.6406578275,-0.1730982161,-0.2097813589,0.2296213444,-0.4020885502,0.351577903,0.3275175384,-0.0881693122,-0.4515469335,-0.401892526,-0.4508641254,0.3622123053,-0.9939764464,-0.1185712243,-4.3704463434,-0.5943901512,0.231280797,-0.1069011998,0.7817096252,0.8004447734,0.3070594437,0.8529933624,-0.5564820819,0.0063704039,0.1346462388,0.395047307,-0.1414908228,1.2183659587,0.7644827148,0.2458252849,-0.3852546798,0.298770223,-0.9275008167,0.7443806268,0.7305487275,-0.7449440014,-0.8046087812,-0.1662764867,0.6720472697,0.9045094688,-0.6226162196,0.8187381863,-0.1532226432,-0.8194732368,0.5495345668,0.4243390203,11.5388684023,0.1798915765,-0.8064339449,0.4911076692,0.8229137667,-0.1599724341,0.5910412435,0.2746515974,0.6194035996,-0.3233168644,0.8427799089,0.3375525548,-0.4777427501,0.4932108705,0.977439657,-0.0686713876,-0.7103028454,0.1929436314,-0.1613339607,0.7158182097,1.5417528885,-0.6861818926,-0.3867364775,4.9987181222,-0.1499354537,-0.143312575,0.8036240479,0.178419164,-0.6656050838,-0.7804736562,-0.0957513214,0.519369559,-0.4475027173,0.2637326571,-0.2162506198,0.7967219616,0.7548084558,-0.2272514972,-0.9203643134,0.7886053136,-0.322042862,-0.1479211105,0.6509330439,-0.5302561433,0.5888226268,-0.5696352285,0.551184682,-0.946831852,-0.7365966296,0.4340579523,0.9503557429,-0.1876586529,-0.5759444019,-0.1614632922,-1.5779686578,-0.5593964433,-0.5955785338,0.8181542763,0.827389294,-0.2616729548,-0.7302887295,0.810700909,-0.1216329448,0.0687601039,-0.7363051479,-2.5697774374,-0.672349633,-0.0725578891,0.0627686711,-0.3798497799,0.0646776356,0.1271276283,0.9070334906,0.0194890612,-0.5651734672,-0.1185164267,0.7509657144,0.6223014928,-0.9034133413,0.9375876735,0.7119990013,-0.7101576406,0.6563459308,0.430967479,-0.8597974209,0.0740795543,0.9137753219,0.6466456207,677.310755283,0.7925003645,0.5296271658,0.8557250071,-0.2758533215,0.0589989355,-0.1230693368,1.7907539589,-0.9594019466,0.3695428261,0.6063854862,0.5569856344,-0.1804375109,-0.0793452945,-0.0389141308,0.1087648515,-0.1989133744,0.689446499,-0.9620209868,-0.2953129566,-0.3937218554,0.5298320516,0.6243191325,0.3723972779,-0.7975371791,0.6578464572,0.1998682013,0.4946776018,-0.9281098787,-1.1132815719,0.8589727041,-0.090784905,0.1783458952,0.9453385477,0.1171085662,-0.1176964693,0.8101873856,0.7966404905,0.1144886119,0.8581831639,-0.5100919539,-0.0897844071,-0.6024942743,0.1046007339,-0.1571558849,-0.0308975733,-0.779493781,0.0121614309,-0.0213666547,-0.9232129367,-0.1665877437,0.0258550567,-0.4651697398,-0.8804659728,1.1275342293,3.2101704683,0.2586947717,-0.5481077524,-0.2805561998,0.9405697191,-0.4108312782,0.571903246,0.9139911858,-0.5454291591,-0.2425027697,0.784828349,0.0925087048,-0.5829609543,0.0374971431,-0.8747533247,-0.833101585,-0.1933779954,0.5679507968,-0.4849381692,0.2507243179,-0.4679347717,0.4122505849,-0.2830868582,-0.5598233386,0.8057031104,0.2675801751,-0.4662533446,-0.4461000224,-0.5458919976,-0.695189222,-0.4049742938,-0.7821179488,0.480581302,-0.1528423024,0.8645124631,0.2819903933,0.6714337101,0.7798481698,0.618319311,-0.6110623921,0.5092190378,1.7978972148,-0.1222281072,-0.5618305895,-0.7603374193,-0.7818121963,-0.4039046918,-0.2576678742,-0.9373061191,-0.037454352,0.7395828224,-0.0275603258,1.0837634691,-0.2341223539,0.1958546095,-0.0722764044,-0.9779561502,-0.6201601139,-0.7315563992,-0.7644575358,-0.4232500145,-0.29901632,0.3291512559,0.6332835193,-0.0320237739,-0.8463729631,-0.3860705279,-0.4000555245,-0.3486112353,0.5386481534,0.7530006441,-0.6104274628,-0.5588671379,-0.6121603275,-0.4073820354,-0.5738308738,-0.8912227513,-0.7022652188,-0.1587231261,0.9131009426,-0.7907063237,0.9014621327,-0.3777565394,-0.9284166672,-0.4982456152,-0.458006491,-0.8969220524,-0.3342672762,-0.3367254319,0.0678305458,0.3222701166,0.9655608279,0.6981776595,-0.7710100885,0.0329303109,-0.4994219634,0.8146066977,-0.3862082755,0.0618750996,-0.2382877286,0.0484220948,-0.7944804321,-1.080846827,-0.642049277,0.5382405579,-0.0866588296,2.3928723057,0.9105670918,-0.3408653987,-0.8960492894,-0.0454014996,0.6414110572,-0.1703992925,2.0020835464,0.0288877694,0.2466025157,0.5187827695,-0.1599561527,0.8424887255,-0.5033471864,-0.8470064385,-0.7974906684,-0.2685896489,0.8822449282,-0.042451651,0.6160325951,-0.0650013858,-0.0891883668,0.620517736,-0.8111436102,-0.4232142551,-0.2580888382,-1.9707062841,-0.9474487541,-0.4534918862,1.2704929418,0.4631447574,0.6955591312,-0.1516337848,0.9085009761,0.7641998838,0.3971686895,-0.8490566922,0.3476597081,-0.3774862946,0.2704249173,-0.7020950589,3.9833773854,0.6648829514,-0.6318269025,-0.1784612146,-0.7612284766,-0.5867940824,0.8712716499,0.4135044895,0.3139964712,0.5676737897,-0.178086801,0.2124271241,0.3797219554,0.6695413168,-0.5732263821,-0.4488955288,-0.645797666,-0.8080539847,0.6874004252,-0.3472613886,-0.7470320105,-0.5483257712,-0.4753960404,-0.4649540423,0.4430353381,0.6220892427,-0.2945779106,0.8418547677,0.1957517816,-0.8609028104,-0.3828225023,-0.111082427,-0.2627356351,0.0456575096,-0.6421057297,0.1261643615,0.620896357,1.073677645,-0.0063865958,0.4302648701,-0.3319511065,0.9738817305,0.6239522139,-0.5663346009,-0.6354802209,-0.3372569365,0.8723634031,0.7004718492,-1.1170184396,-0.6398198821,0.6497279396,-1.4270398734,2.8107708356,-0.205796485,-0.1644823227,-0.1956834893,6.2809642837,-5.0128097265,1.1973134452,0.4495433884,2.8627568119,-0.0871199571,-0.3530924659,-0.6167051259,0.9317198535,-0.3106060054,1.0448064684,-0.6214920329,-0.8395639178,0.8000144748,-0.4105932642,-5.8602325877,0.3285734911,-0.5813463707,-0.6766920346,-0.1681655753,0.8304686541,0.9179092718,-0.2664323488,0.030734059,-0.0584673251,-0.9447919062,-0.0761681372,0.670041335,-0.1571587423,-0.4763351972,0.584336063,0.6819309171,-0.769814771,-0.0939622266,0.1353301764,0.4413156604,0.7862214973,0.1173791298,-0.4675028394,-0.3276034942,0.0293982412,0.4023316743,0.8917342637,0.0287821669,1.0200136815,0.2127585726,-0.6786445999,0.58235456,-0.6090965313,0.1821051163,-0.9223918736,0.0088701934,0.0913729639,0.9250071044,0.2722435806,0.3968292167,-0.3656764016,-0.3169360566,0.5640681315,-0.0898700624,1.0374253049,-0.2726474249,-0.4025279082,0.8557543946,-0.7984339714,-0.1351310534,0.2732848726,-0.7642202651,-0.8084928308,0.081984102,1.0825752166,8.9394442126,-0.770707361,-0.566851522,0.673240027,0.027967425,0.5157646082,0.2636888049,0.191907422,0.4285926113,0.5748246211,-0.403674674,0.1377804587,0.8534637521,-0.2647196349,0.9070405285,0.4929396619,-0.2931445752,0.4456250365,-0.6879734916,-0.9022477998,0.7858172928,0.508864827,-0.7372015147,-0.2324267552,0.0123195769,0.1151620915,0.4911248412,0.0719280488,-0.7102543327,-0.5784277286,-0.2279999813,-0.8731705181,0.8567085024,-0.9446894216,1.2142452448,-0.1314509194,-0.7351422744,-0.0643754346,0.8412596465,-0.0424936273,-0.0938567239,-0.5601820136,-0.4240805553,0.4881064522,0.1616309969,0.9719008922,0.0321185939,-0.9311016191,0.8859940624,0.1764653461,0.89837817,0.3457650398,-0.4873622737,-0.1015476668,-0.2218285382,0.2780616386,0.7892653737,0.9327383542,-0.4276481532,0.5740063744,0.8980962598,0.1421893098,-0.9155828234,0.263088806,0.288898421,-0.1005640835,-0.100499438,0.1469369938,-0.699365116,0.7976668143,0.2314233223,-0.1134643696,0.0487004718,-0.0492328287,0.5717260218,0.624583864,0.5779866407,-0.6839921369,-0.5186149893,0.9878131211,0.3870501033,0.0395211255,-0.4308680025,-0.2496322423,0.3473138254,-0.9327290718,-0.580692813,-0.20912449,0.1258985686,-3.1683695341,1.5968858885,-0.6634743209,-0.5535522276,0.4850974495,0.4829672674,-0.0646467531,-0.4664688157,-0.6291925202,-0.6493745538,0.0392812831,-0.4513505699,-0.1666211051,-0.4755212026,0.2000463208,0.4754243915,-65.5107022938,-0.4403556206,-0.8247785662,0.8945673683,0.1976490143,-0.7742386922,0.3723710138,0.1192876994,-0.8233556183,0.318297208,0.6033219482,0.692989676,0.3445416386,0.9640837611,-0.8532166079,29.5839628825,-0.850463615,0.6398166618,0.8896898163,0.4841135459,0.8996001598,50.6217586865,0.0264273901,0.9840196602,0.7323957278,0.2333043791,0.0466983378,0.2320742125,0.9032419866,0.4734731325,0.3510552673,-0.1574364469,0.8626090378,-0.3199539164,1.0433780481,0.4601174688,0.5564677789,-0.4580906303,-0.5784042035,-0.3189451368,-0.8795082858,-0.7899242127,0.8817628765,-0.595753362,-0.0282528706,0.4644350393,-0.5495813276,-0.6458674252,0.4767958728,-5.2455563798,0.2210526303,-0.9044822619,-0.4755250405,0.0913766267,-0.1119832343,81.8789266526,0.1043891019,0.585026692,0.4209182744,-0.6392880308,1.5125965339,-0.8928875599,0.4625272326,-0.3791674793,0.6295005305,1.0155723844,0.6083987751,0.7725646439,0.9930348674,-0.4672513337,12.2397942832,0.0959097735,-0.7345816395,0.4317413098,0.4892199372,-1.6814877294,-0.2597867221,-0.6218009624,-0.7528269577,0.1568169783,-0.3663626129,0.5033601989,-0.3457186908,0.0339729006,-0.9225544382,-0.8097557585,0.0943827909,-0.4436753829,-0.4404387281,-0.3644063098,24.8126096337,0.2920390459,-0.1424375928,-0.5853059436,0.0321339342,-0.3989702279,-0.4883706826,0.4787477715,0.0098415499,-0.394194513,-0.3272331959,0.5365183709,-0.2802355934,0.7913503879,-0.5800950382,-0.4773016545,0.021840028,0.6327609903,0.0690074261,0.9217866484,-0.4075955398,-0.1586101373,-0.3070194668,0.2621777703,-0.470710316,-0.3947263553,0.0216573214,-0.2902462965,-0.4095500017,0.0213688194,-0.7393204091,-0.1120586548,0.1565154543,0.5464783202,0.9006702321,0.3504583966,0.3906515122,-0.7797842858,-0.226753177,-0.3110873042,0.4654216832,0.0491414219,0.2624072135,-0.8474487832,0.7164152592,0.7181100388,1.0432221266,-0.6213820155,2.0085012346,0.5104094467,-0.8936780611,-4.0959971104,0.6464568222,0.6509409121,-0.5078741074,1.1315676916,15.0086151187,-2.0123933295,-10.1196792448,0.1811901743,-0.0239431188,-0.7265897521,-0.6828600038,0.7780830128,0.7068625804,-0.683701574,-0.0677068441,0.1391790882,0.3185043767,-0.1220581967,0.6791675868,-12.2914253365,3.1937660317,0.4182475109,-0.1058787218,0.1521020465,-0.4793301172,3.1723061401,-0.4983419765,0.1424804249,-0.7351225614,0.6532180277,-0.7299615895,-0.2904790371,-0.1444362322,0.490270686,1.1847774309,0.3516450672,-0.1870907559,-0.2342446304,-0.9288929819,-0.3168964874,-0.256819366,0.3888845696,0.7275629774,-0.0705156103,-0.1291915646,-0.8718169771,-0.736054913,-0.1958073563,-0.2349654075,-0.5714155388,0.4007432869,0.3776958243,0.8711004087,-0.2391886564,-0.648973658,0.3313128036,0.5809697346,-0.4513022399,-0.6274437029,-0.164608413,0.1800610066,0.0210646609,-0.27995954,0.8711720297,-0.4471437227,0.972198099,-0.855214328,-0.453064962,-0.5137212738,0.5801559173,1.372746981,0.1101296958,0.7942997089,1.3161374793,-1.2043466745,0.2382830459,-0.7070935378,0.5747333894,-0.7435596465,0.9409307305,-0.8067629341,0.1273132773,-0.0340833805,0.7507137449,-0.8339992063,-0.3872430918,0.8925584601,-0.9543005608,0.5798656803,-0.8278056029,0.4696233294,0.6789035341,0.7930576906,-0.6537480474,-0.9676403869,0.6359566639,0.1606572658,0.8021702311,0.6120487595,-0.2104556376,0.4024537298,0.7416099087,-0.8096874498,0.8489143758,0.0861482791,-0.3096330996,0.4823073898,0.1481502272,-0.3669698425,1.4130173939,-0.9875659223,0.1666700491,-0.7889268217,0.2695874444,0.4969770569,-0.4345047715,-1.1178651201,-0.4006406721,-0.0336036732,-0.7791551001,-0.7164041502,-0.7447661261,-3.3049604754,-0.2878682108,0.4019361993,0.8129821488,-0.6161519578,0.0789819571,-0.6829117969,0.8969292433,0.0262458074,0.3615481564,0.5498796049,-0.8741019459,-0.4536308742,0.5332772382,-0.8158273624,0.1339785042,0.973093109,-0.3357828324,0.3122402371,0.3375863131,-0.8819906136,0.6875698223,-0.5542101302,0.1288078964,-0.9731584212,0.6979918372,-0.5601006507,-0.4107812774,-0.1816597291,0.5030733963,-0.3691317278,-0.7909213359,0.7504722622,-0.8559806175,-1.0548074903,-0.0423669752,0.6158601663,0.8001991593,-0.2797665352,0.7856789927,-0.4045128584,-0.171631496,-0.3047603736,-0.6017265326,0.5949390716,0.3188519582,-0.2290926474,0.7608762611,0.867278185,-0.8844382364,-0.0389663711,-1.0392611876,0.2037523666,-0.2324760895,0.8130741823,0.8093938525,-0.426347214,-0.1879456161,0.330918678,-0.2328192899,0.2026075391,0.293460406,0.9649674646,0.7251266167,0.3420981931,0.2064598993,0.9460247918,0.5106061579,0.8578432397,0.3105427751,-0.4099869847,-0.6964881493,0.0111558,-1.1437284828,-0.0519562742,0.8842957407,-5.6166397587,-0.2450883841,0.5909062718,1.5537917195,-0.4064655727,-0.9395845688,0.9240053865,-0.3601807654,-0.0001656423,0.0132903723,-0.4631133077,-1.0289713215,0.8214070275,0.2020776803,-0.9520091797,-0.5669892345,-0.000515517,0.2228882578,0.5057198542,0.8225184306,-0.1459933221,0.1448291874,-0.2631503717,-0.4154031667,-0.7993713553,-3.7740876196,0.5819616914,0.8843791994,-0.8087434685,0.7912979719,-0.6272835287,-13.6525452723,0.1041118648,-1.0129552713,-0.068078937,-0.0426521496,-1.0110394082,-0.7578657357,-8.160390625,-0.7114973316,0.8352470387,-0.4704583407,-0.7586704506,0.7398151979,0.5766133293,-0.8328103277,0.60020556,0.9202422955,-0.4533915777,-0.1563642879,0.9428045535,0.8918236424,1.0265438296,0.8239143746,-0.5887588008,0.2084816561,-0.7701142083,0.8319059009,-0.5674691774,-0.7953613189,0.0373308508,-0.6076856354,-0.7789646097,0.9798422064,0.062736863,0.1459108376,0.5449252711,0.3446805773,0.056540109,0.720138797,0.8215520613,-0.2331922179,-0.5078184058,0.0943022802,-0.8306590543,0.2637602713,0.3838034775,0.3390753379,0.1621431141,0.7391586434,0.257845674,0.1454288159,-0.8046234055,-0.4223823257,-0.4235845612,0.7364589358,0.831551699,0.2745214961,0.0851108928,-0.9736002673,-0.197133123,-0.1066908875,-0.7188525696,-0.0082559259,0.3019982623,0.6058839415,0.6461563008,-0.6519715065,0.5731792281,0.2435610197,-0.3225000843,0.9413224067,1.1243081471,-0.8460302536,-0.0577980977,0.7661231796,-0.8183818136,-0.2382350852,-0.1428390241,0.6798671399,-0.5975620099,0.0607764073,-0.2705544031,0.2331409018,-0.015711069,-0.7671502432,0.0664173705,0.2816806365,0.4277332347,0.0772846329,0.0743423166,-0.2828873497,0.5337352543,0.4601444769,-0.6925739645,-0.3868737952,0.6185631296,1.7555864603,-0.7016513357,-0.1823491866,0.222282627,0.0934272108,0.7854863021,1.0494690179,0.3354884104,-0.0486766005,-0.6324625879,-0.8270777832,0.3212532683,0.9306509473,0.6581250513,0.9053653341,0.7886921568,0.7596315658,0.6442990172,-0.8545789644,0.658390487,-0.2814378549,-0.7843390091,0.7030174238,-0.0712916771,0.4025264009,0.8883272367,-0.3997325074,0.222523294,0.1564443475,-0.7236244585,0.6250417693,-0.4633299045,-0.8255129343,-0.2322275299,0.7231518488,-0.8802820903,0.1094534137,-0.320962365,-0.7670787275,-0.7417195189,0.8240450094,1.0546293602,0.7266912932,0.2311175652,-0.4913240655,0.6064669319,2.1843617901,1.0051444881,-0.3709857875,0.390233568,0.3178152816,-0.0490561744,0.5440496065,0.6873489416,0.8293899461,-0.0116094419,-0.8540238569,0.1377717679,0.0469053151,1.2373553236,0.8005642032,0.6322556814,0.9211287882,-0.0157448683,0.8870880185,0.3191812452,-0.08661744,-0.3482065107,0.6121973014,-0.7368361038,0.0731411423,0.4422198113,0.6314254589,0.0786274306,-0.3462068397,0.0407018818,0.319076102,0.1948672217,0.1971444831,0.2060308531,0.3931421687,0.526528649,-0.1502808414,1.0969069343,0.3648782904,-0.8167337851,-0.4174473266,0.7996155942,-1.3235235501,0.9471610966,0.8843658967,-0.0919640304,-1.1251268603,-0.382870228,0.2373425915,0.9731808725,-0.6443138345,0.2007489681,0.1524343604,0.1246882949,0.3964263054,-0.4341197406,-0.5491391495,-0.1737762728,0.8883740489,0.5799233453,-2.9372790019,0.3442769826,-0.9034507638,-1.0781775162,-0.5850163491,-0.5961694409,0.1988728861,-0.8041088584,-0.4768894588,-0.2977093498,0.1398296981,-0.6149361616,-0.6933963688,6.6025897798,-0.370283784,-0.1915429088,0.4904050935,-0.5507457758,-0.6305940703,-0.2601900608,-0.4653728626,0.5812000384,0.4297708068,-0.685269065,0.0925165525,-0.3925971735,-0.7317893128,0.5590031627,-0.6126665458,0.028980877,0.3394033017,-0.2575289545,-0.5340515291,0.2557979971,0.0587496228,0.9065459745,-0.061819318,0.4405635116,0.3153418371,0.898695886,-0.4180804208,-0.710292151,-0.4079841279,-0.6077786115,0.0543006834,-0.7421665914,0.9340880168,-0.8572509041,0.228485075,0.4735242868,-2.4313826153,0.2977844697,3.1136316731,0.1563131565,1.1231208737,2.1943822892,0.7101876243,-0.5623407228,-0.2296919555,-0.5133551418,0.1836893366,-0.0499306231,-0.7536721461,-0.5002480751,-0.0846862359,0.5748204655,0.1579062656,-0.580416485,1.0589336253,0.7294533109,0.5441704594,1.176070715,0.1542871841,-0.0728819128,-0.1078572664,0.7408426046,0.6845595471,-2.0639577491,-0.3829697794,-0.6578449444,0.1468568365,-0.4909620448,0.0005153756,-0.4332279532,0.4884952509,0.9717333756,0.2246163537,-1.1741771303,-1.1112768038,0.6041635173,-0.7671358076,-0.9279137314,-0.4674598485,0.2033757038,0.5407135383,-0.5637197068,-0.0251856188,0.2390978539,0.7381248899,-0.3894588582,0.9067448901,0.1458212849,0.7077205082,0.9458867585,0.0029233507,0.3069921467,-0.645674773,-0.253932333,0.7548980618,-0.2802160598,-0.8730802956,-0.6013488564,0.7166340485,0.0883249497,1.0659894774,1.7070477147,-1.2724781897,-0.1124204826,-0.913753259,0.1568652215,2.4512903143,-0.1495833912,2.7425922874,-0.2435004655,-0.4069714974,-0.2956720172,-1.0735102535,4.4471744527,0.2930237984,-0.8123709247,-0.1704036992,-0.9811947089,0.2054854309,-0.5519358047,0.677930802,-0.5013479018,-0.5880074953,0.9294503503,-0.5540801353,0.004663298,0.6379314129,0.9518021663,-0.9936587392,0.0055891296,-0.174895641,0.7195543723,0.1691817312,0.7064482418,-0.4403600982,0.0182950481,-0.605467266,-0.9615271007,-0.3046630098,0.6396860954,-0.1227192935,0.7612612844,-0.2011609937,0.3514332833,-2.3928831276,0.0725377259,-0.7207131781,0.6044489764,0.7280743353,-0.7206032846,0.5581546543,-0.918622036,-0.1403675118,0.1902700554,0.7293219991,0.7709771663,0.3361743363,0.5360207844,0.3198954422,-0.8653141623,-0.4546614904,0.2837327309,-0.6971866709,0.2930388875,-0.17050317,-0.6103110661,0.5000395912,-0.7577386838,0.8573800702,-0.9254240325,-0.1384518175,0.4518944465,0.0882272042,0.3116024711,-0.8034969178,-0.0959478275,0.5200192063,-0.5976680772,-0.381568709,-0.2171655925,-0.590597243,-0.9916512478,0.1145342372,-0.0868110838,0.4659727214,-0.1284691029,0.3470972659,-0.7131419424,-0.900294269,-0.931157623,0.7561864673,-0.3540253755,0.2944005828,0.8477844996,0.0920178902,0.4762808725,0.7182850647,-0.377384205,0.2639315474,-1.4223738565,0.3120986931,0.0465479412,-0.0045571716,5.4215149737,0.4033913086,0.8094401748,0.5093471907,0.7050845669,-0.2109852033,-0.002264562,0.4460606285,-0.5603842138,-0.2498423099,-0.2789523449,0.9169028223,-0.9987107614,-0.0434481499,0.2703531368,0.5679813959,0.3566229416,-0.6343357958,0.1465585674,-0.166029988,0.1107718086,-0.076127362,0.3482853415,-0.011151758,0.4209101125,0.3949143656,0.8782975067,-0.5606310541,-0.4312821567,0.7440809863,0.8055094279,-0.7841458263,-0.0143506345,-0.3377016783,-0.1225781265,0.3358382349,0.6139940772,-0.9378957061,0.772485114,-0.2900850227,-0.4422178046,5.0130286382,0.0759710433,-0.5211131965,-0.6894874232,-0.8258636696,-0.7954021401,-0.4132458977,0.9419219414,0.8281195097,-0.9032621823,0.5258055468,0.4605072432,-0.7125811473,-0.8545358134,-0.7133454702,-0.2155466771,-0.5316260542,-0.7048749794,-0.6915640014,0.226310442,-0.5600879509,-0.369212676,0.2270127523,-13.6229675422,0.0602921993,-0.3685395834,0.0651652017,-0.1697191689,-0.6078355244,-0.6874337446,-2.7867334141,0.1143074882,-0.6290835696,-0.313566665,0.5343217354,0.3208250222,0.5492785318,0.8149642028,0.4963682686,0.0545670797,-0.4800534059,0.2950608917,-0.583693413,0.4227802107,0.3212734961,-0.3495819945,0.7271546372,-0.0679894894,-0.1720898633,-0.1782993107,-0.0096719631,-0.0131583011,0.5497702037,0.7642789622,-0.0591670246,-0.1408567219,-0.4613120302,0.27234497,-0.8967663683,0.4867557293,-0.0541672787,-1.5055708771,0.8569326449,-0.8011237232,-0.2726262913,-0.4809046776,0.3336814298,0.357724156,-0.2449376819,0.7078807694,-0.7177170476,0.7032533167,-0.3303251114,0.8669844609,-0.6935300195,0.4745714692,0.5825158106,-0.7763549215,-0.1718147844,0.8887616983,0.8396318983,-0.5296114104,-0.9013348161,0.1680055846,0.6666732624,-0.6895031785,0.5736895906,-0.5969428603,-0.1010952511,-0.4739590294,0.0592353756,-0.9246455105,-0.0511946636,-0.9410858042,-0.0162592647,0.3255018897,-0.6418402051,-0.0330900528,0.2653931965,0.2073370896,-0.8934196016,0.922607165,0.9061279372,0.1452594486,0.7958886607,-0.9349941442,0.4071001864,-0.8407040311,-0.5843611586,0.6140849414,-0.1226467291,0.2946915309,0.865344021,0.6491232178,0.4714646723,0.8955034002,-2.1430345066,-0.0787302105,0.6194403993,-5.1264683574,-0.0781733548,-0.4670938892,0.1326719283,-0.1839515377,-0.0510502929,0.4962450133,-0.561062634,0.8632415823,-0.4574265163,0.6483288145,-4.406295425,-0.8714167456,-0.3329047038,0.3930559859,-0.4925185604,1.5508005508,0.622743017,-0.7819704589,-0.8156703213,0.946331605,0.5473340764,-1.6154862676,0.6935639975,0.7398454627,0.4198417134,-0.9452207459,0.3646047204,0.717174246,0.4079614602,-0.4844759485,2.1145104765,0.8395255328,-0.2609267772,0.0556655729,0.1114347568,0.8862021651,0.4759957635,-0.109604935,-0.0492096111,-1.7171935642,0.6139372937,-1.2600247702,-0.5202246084,0.82599118,0.7121529022,-0.6238827409,0.6359066432,-0.8100615254,0.2568125987,-0.6741944283,0.3864188641,0.7897118389,-1.0526230409,0.4173347223,-0.837817062,-0.6790086864,0.5524418886,0.9325393715,-0.1536342932,-0.4344332877,-0.9471868633,0.8594686307,-0.3132070965,0.593044263,-1.9221969357,0.4735475203,-1.06129932,0.9264578127,0.7362728243,0.159740659,-0.1182100997,-0.362670745,0.2705978943,0.761157732,-0.7885947016,0.4074028746,-0.1530314742,-0.6315185011,0.6795798591,0.946137743,0.7975468499,0.49094138,-0.7005331115,-0.9712046069,-0.3783117728,0.4753896147,0.9376280208,0.6032796645,0.6129667269,-0.9840394109,1.0657767507,-0.8503084858,0.6531022891,-0.6458468836,-0.7035292255,0.1303889061,0.8709926514,-0.1225208061,-0.5307377805,-0.7932723893,0.7153369647,0.2950222001,-0.6161249164,0.3174857527,-0.7319854361,2.1360464808,1.1155906564,0.484151448,-0.2671991024,-0.0861322241,0.2999228322,-0.2869186671,0.7389209652,0.3846308024,0.1973929629,-0.0722779694,-0.1339551573,0.1483668074,0.0309516436,-0.902442665,0.4548412072,-0.0763806285,0.9608398589,-0.6382140183,0.3707148717,-0.5698021534,-0.3945040881,-0.9952147627,0.0202440129,0.4919230681,-0.5077029286,0.8421229794,-0.8838530037,0.9189190402,-0.8620830422,-0.0848576459,0.4959030445,0.7088833962,0.1417450821,0.7832329038,-0.0542043521,-0.5624486864,0.3699556182,-0.4804667342,-0.1389791191,-0.9597261763,0.8140489345,-0.576618289,0.7150882821,-0.9139960084,-0.882400462,-1.3973336562,0.5038225381,0.3552384431,0.8706050836,5.8887455362,0.7678492839,-0.8537437975,-0.6000588455,-0.1466460012,-3.8448314289,0.8551348362,0.6968478374,0.866214583,-0.1002903987,-0.2689590109,0.2857916116,0.7953955107,-1.1570167392,0.0447884546,0.5778253272,-0.8056901592,0.061091992,-0.2854082987,-0.5940093645,0.4058137611,0.7318957077,-0.5455938384,-0.5538472176,0.7026400531,-0.5479934004,0.5287964324,-2.5479312412,-0.0695262071,-1.0891326569,0.5340417298,-0.3191861631,0.3647371684,-0.8460898363,-0.1524350094,0.9444266337,4.9683897484,1.9350319652,0.732131329,-0.9459796851,-0.8587612298,0.8517605453,-0.6735511477,-1.8812857255,0.0176982037,-0.0784424214,0.737834674,0.8045705815,0.9374104557,-0.8822468836,-0.6342232179,-0.6477387246,-0.4980319404,0.1447502869,1.1628922684,0.5631883131,-0.1054480792,0.1755879801,0.4167614385,-1.1374480281,-0.6755327094,0.2503920959,0.3774102635,0.8335608776,0.0323227933,0.1502867099,-0.4021110486,0.6140731194,0.5908585728,0.1083552679,-6.6138338842,0.8452173051,0.724419494,-0.7791264665,0.1728893786,-0.70881153,-0.0906460084,0.2935150081,-0.2013477116,0.3601333194,0.5936276371,0.2992921661,-0.5981104096,0.1523558493,0.3513608612,0.6242403457,0.7280247354,0.6279196714,0.9357142211,-0.8736794735,-0.6141669879,-0.6630519321,0.63595787,2.1171634956,0.958605141,-0.8991770969,0.0385679174,0.0357401603,-0.6498300367,0.0756119467,-0.0797056031,-0.4231338504,-0.1448274456,-0.8718657998,0.8083041611,0.8143039779,-0.2523882484,-0.2748832626,-0.2886201251,-0.2978814277,0.351561016,6.9428633763,-0.2780333531,-0.3215111263,-0.9253268232,-0.7859780468,-0.2597851028,-0.3409716702,0.6244802477,0.3900200119,0.0423871037,0.0074507079,-0.3385183714,1.1889093557,-1.2373039854,0.5638968796,0.7961357877,-0.8182966379,-0.3545450535,-0.9352288568,0.4296586801,-1.0903947057,-0.344089222,-0.5716845959,0.435245249,0.4132811641,0.416133195,-0.0738023589,0.9182296605,0.5491086864,-0.3367831179,-0.2792857751,-0.1093881562,1.0075080423,0.6180465992,0.8448101555,0.6237374372,0.3228090732,0.9870555635,-0.1568406629,0.4925105899,0.0441091179,0.5605214256,0.1020636152,-0.2117914536,0.6860032274,-0.877733402,0.557822557,-0.615409931
   0.7571134486,-0.4237257487,1.0378787029,-0.7987876951,-0.0174654687,-0.2693989715,-0.6860075038,0.4979969217,0.9440558966,0.8156353975,0.9253112896,0.9893853853,-0.0389482095,0.4694653288,0.2829131799,-0.5097563463,0.3554771145,0.2867604363,0.7738812616,0.88224191,-0.7416360656,0.3989155642,1.1824566025,5.1311340636,1.1084234089,-0.3290254816,-0.3468367852,-0.5676828973,0.3418897311,0.6792178448,0.0462196038,0.3191590118,-0.5598411685,-0.0690099782,-0.757624753,-1.2916432229,-0.7649028351,-0.7247257537,-0.6934005287,0.3423339321,-0.4240793581,-1.3006109679,-0.2648002534,0.5384637277,3.1371001984,-0.7203739128,-0.9066237793,-0.1935830073,0.6824447747,0.1963492523,-0.2020652343,-0.9344345028,-0.1845701946,-0.5771529671,-0.9606331267,0.8153688983,-0.8758149645,-0.5225600127,-0.7222302631,-0.9576658214,-0.3652312456,-0.2096690622,0.6587946322,-0.8245305808,-0.5200578243,-0.9138202176,-1.0874560569,0.153253478,0.4781593707,-0.7230034417,-0.065127533,-0.5093857126,-0.9391470533,-0.1396184547,-0.417338944,0.6769148966,1.0101945814,-0.4826454415,-0.5680811815,0.0747649654,-0.1329818577,-0.6072523631,0.6086368674,1.1778703829,0.0491742034,-0.5805306843,0.4150577661,-0.4791007559,-0.4529425908,-1.1163050239,0.3949995906,-1.8383415504,-0.5222019277,0.4156553651,-0.0260075746,3.4715821133,0.4797845985,0.3163608426,-1.0800477944,-0.9077891403,-0.5915847237,-0.8536758782,-0.2272214414,-1.022216568,0.2806314413,0.1341694621,0.2557804704,-0.5935422988,-1.2901432853,-0.1550235473,0.619102369,0.0877514941,0.1543084187,22.8015344455,0.8084398246,0.1675000212,0.2912174356,-0.5081242054,-0.6657096726,0.4005908019,0.259527818,0.3806021235,-0.131616298,-0.9650971161,0.7184210119,-0.070870909,-1.2787403743,-0.2276023998,0.3736514949,-0.1815631758,0.2835638262,-0.6655527612,0.0253453814,-1.1084662804,-1.3038070947,-0.0610263159,0.6511186251,0.7760191046,-0.989228411,-0.5381653431,-0.1219557767,0.9047626258,0.2227849196,0.1575082469,0.0184696669,1.4205477253,0.0352599274,-0.3686524991,0.7172980868,-0.1000646424,-0.7242627781,0.2423235125,0.6874514632,-0.3970780213,-0.290315851,-0.9549599947,-0.4404695921,-0.4821319527,-0.6037659415,-0.1353982262,-1.0829870083,-0.3613765746,-0.8570062376,-0.1889403864,0.1482295199,-2.1604534703,-0.1079440019,0.3299633176,-2.1759911192,-0.6442331281,0.6865217455,-1.4320986154,0.8793486259,-0.3761880507,0.6462584355,0.1206133153,-0.0747356363,-0.0065806657,-0.6550754958,-0.5350652153,0.8611371657,0.8315049211,-0.7491130305,0.9940161439,0.557317145,-0.5620284562,0.1244229975,-1.3086447613,-0.1465791527,0.2147462724,-1.2727962995,0.8708279085,-0.4503523884,-0.8862079515,0.7543055242,-0.9127871212,-0.7015149786,0.8167735744,0.8884668242,0.2615974145,0.0061462728,0.2314912024,-1.2561916361,0.0632290367,-0.5046507479,0.4994576525,-0.6499800939,-0.5006838505,-0.76754204,0.3582510317,-0.0243897571,0.63098811,0.5813418665,-1.3405637973,-1.6355547632,-0.1544889378,-0.2937682481,-0.2429916349,-0.6045260926,0.7155958059,-0.8208998873,-0.1807646497,-0.6732375714,0.9229803692,-0.9138452626,-0.7956149996,-0.5027197587,-15.9976532597,-0.8800636839,-0.7215701741,0.3048014817,0.1218388962,-1.1003871156,-5.5826004748,-0.0583084467,-1.7939903714,0.8266289143,0.7470070179,-0.0890969322,0.6260102865,-5.3421454849,-1.0582315127,0.1615657659,0.245293962,0.0321731392,-0.2738768382,0.2373590502,0.515794293,0.2914863775,0.1102833308,0.6212573162,-0.8770399449,0.1549100089,-0.6980177664,-0.684164673,0.2057007616,0.2715003077,0.4595766384,0.7526166527,-0.002307266,-0.0244689455,-0.955489673,-1.0225645436,0.1520918325,-0.3584940881,-0.0218358574,-0.7647715942,-0.2802491393,-0.0964903699,-0.8591385567,-0.9282057826,0.1934971556,-0.9596985107,-0.2246973245,-0.6896563944,0.047031341,0.4587613512,-0.2361727349,0.8919450029,-0.6121705385,-0.9212761223,-0.2091028755,-0.4880224741,0.1472501483,-0.9876178906,-0.499898701,0.4268904746,1.5110264726,0.1629718734,-0.7286562632,-0.0376795514,-0.8898356993,-0.169698912,-0.022015362,0.6112705048,0.7177822133,0.5682002009,-0.460700358,0.6174757495,-0.6051238373,0.8937399959,0.6493949665,0.6746745663,0.1159030344,0.6277309441,0.8408806463,0.8507792205,-0.2649399363,-0.8863169881,-0.1195885278,-0.3650200856,0.1995524123,0.8186995181,-0.1028497957,0.3997823751,-0.4977301491,0.7529993599,-0.7556189578,0.0271373269,0.2620505059,0.4566680423,0.6332821557,-0.3455285453,0.2771552461,-0.7473719206,0.1006819252,0.3247322627,0.1668031188,0.1555641271,6.5016868618,-0.2389209391,0.3639956048,-0.2787106808,0.4301926263,0.5716827186,-0.7166904546,0.0006327144,0.6135526517,-0.9064845397,-0.1140872885,0.3785288288,0.1594609802,-1.0093386872,-0.668858682,0.1564014531,-0.4180380139,-0.2525354625,-0.4700567526,0.3654521148,-0.8702733796,-0.9656456995,10.622278934,-0.5050065136,0.2003996561,0.3529170057,0.7621248147,-0.6843864989,-0.4007016439,0.4959311693,0.7341999928,0.7769681665,-0.2830305375,-0.2335128712,0.3856205909,-0.2815075268,-0.463638508,-0.7982372439,-0.2248835852,0.3779241549,0.5280820062,-0.4191933042,-0.0389754671,0.6783176089,0.3225141449,-0.8022670387,-0.6479942145,0.2264442806,0.793575793,-0.688161492,0.8420439221,-0.2288405759,-0.6097070995,0.3671393829,-0.4079126316,-0.0051819015,-0.4944522857,0.2667331801,-0.4701069829,-0.322575275,0.5439180676,-0.9826150089,0.0403585114,-0.8877083523,-0.3359201455,1.8542902007,0.3250805492,-0.2899575504,-0.7971336615,0.858848675,0.0320714861,0.4391814434,0.3034007481,-0.0368619582,0.5611084113,0.9602977966,0.0837424544,-0.0068130209,-0.1413406618,0.1858728392,0.7982534521,-0.1623239778,0.8676417546,0.7832593242,-0.921311416,0.1043095224,0.528648342,0.3835337857,0.3093225272,-0.586489633,0.7208553755,-3.1409760996,-0.9415930072,-0.4203788579,-0.9453854516,0.2975815669,0.5978230755,0.2946438819,0.0569015252,0.3662977892,0.3718881972,-0.3860014402,0.0500794368,0.7550611682,0.869346842,-0.0183456767,-0.969302803,2.5760388923,-0.0744447331,-0.3094835386,0.6327969033,-0.7716953259,-0.3316371717,-0.2888359385,1.1200369161,0.0846756196,0.0197527545,0.3575280105,0.3085867367,0.2719233726,-0.5442005894,-0.6143972222,0.9666807336,0.5431394586,0.7684928133,-0.0767366209,-0.1972797558,-0.3120178042,-0.792408716,-0.3384793712,0.3009877946,0.3626286347,0.5513989369,-0.6728460838,0.1292253049,0.0368594089,-0.4251574797,0.2381841219,0.8697958945,-0.1994607337,0.8792072141,-0.4753190322,-0.9793217329,0.296316317,-0.1337774184,0.7751980659,-0.1406011352,0.5389136394,0.8163341975,-0.0814517439,-0.5504418919,0.9840561646,0.8912934412,0.7308135863,-0.044617254,0.3578324773,2.3563169125,-0.0657171679,-0.8284329435,-0.7955079672,0.3238941686,-0.1612562037,0.1483912395,0.1679492102,-0.9317934986,0.7506280492,-0.5094122156,-0.8693788458,0.8052581928,-0.7518296863,-0.892997458,-0.8561199969,-0.2241230845,-0.5668149311,0.8491707401,-0.2942565101,-0.0364488132,-4.7266410852,0.4876533559,-1.0066430624,0.5089027158,-0.4459820347,-0.2000928586,-0.0201999688,0.5914347123,0.0968068466,0.2335919172,-0.037945677,0.2757366358,-0.3658542166,-0.1722707728,0.3453435832,-7.2795711773,0.3881522352,0.8355333723,0.2793239929,0.5532511029,-0.5207984465,-0.3224493207,-0.9092634112,-0.7198001273,0.5828779783,-0.7173509412,-1.3211249921,-0.2430961192,0.405521285,0.0603799486,1.0216366645,-0.6763494106,0.4243733881,0.5860470657,-0.1400699893,-0.5966821485,-0.4235659642,1.5183753119,0.0301996945,0.7555375072,-0.4566083282,0.5529302839,-0.0104516762,0.3957031575,-0.9065062041,-0.2845943746,-0.2391819301,-0.0871754723,0.0695393607,-0.5326576624,0.059908592,-0.476839153,-0.7572427291,0.7165179239,-0.6313703713,-0.9989766913,-0.5811561033,-0.724339207,0.707663537,-0.7429640969,-0.5818104521,0.2880775479,0.6140344252,-0.8346993948,-0.0674849041,-0.5300310111,-0.628162519,-0.7832483159,-0.6134900998,0.2171316008,0.3272309215,-0.737576558,-0.3198581113,-0.1375869534,0.1088660794,-0.2350530777,0.5691795286,-0.9917154883,0.4617194784,0.0272790751,-0.1992110376,-0.677112674,-0.0504347968,0.4155199647,-0.7831688215,-0.967935593,-0.2743192922,-0.5263173899,0.3887114135,0.3268998521,5.8361353514,-0.0341690741,0.1790791788,-0.3762824079,-0.8454993099,0.9372263524,0.5673447887,-0.2082357002,-0.6685903951,0.7804334645,0.2189439263,0.7776353823,-0.1910865366,0.2683868159,-0.0502421943,-0.8469045514,-0.9452372854,-0.184888903,0.6702508423,0.3940621377,-0.3944836042,-1.0382383669,0.8057775744,0.8938457088,-0.288380224,0.0272911032,-0.4725582358,0.5053857832,0.3647560537,0.7344924534,-0.5686881831,0.594693455,2.468159682,-0.1901693038,-0.3091959929,0.8025296774,-0.2569254734,-0.227544009,0.2832867298,-0.0740176924,-0.658981582,-0.2338162364,-0.1779033291,-0.9018535244,0.4853189965,0.0811400136,-0.8834092036,-0.7686940643,-0.7683317166,-0.0267176107,0.3385310189,0.3775774781,-0.6703263973,-0.0538279609,0.2314029309,-0.4962962566,0.6169967627,-0.7430257096,-0.5671416015,-0.4018879023,0.183021699,-0.3363062402,0.5965726502,-1.2666679045,0.9777083628,0.7730062564,0.3960657834,0.366988691,0.8605279779,-0.4814469727,0.375648535,-0.3996340796,-0.0147466897,0.5843510416,-0.796829869,-0.4832482119,-0.1483827651,3.2917771272,0.846274027,0.451804116,0.4707449176,0.1506927635,0.5712399545,-0.2644661478,-0.5716603447,0.1381595872,-0.3760550522,0.8514945311,-0.9932608593,0.9307194132,-0.9895218955,0.692872447,0.6364537064,-1.2294086215,-0.8628876112,0.5410813496,-0.0061823709,-1.327362513,-0.6074151748,-0.8326208688,0.4531740895,-0.1533571445,-0.9108579942,0.958541155,-0.8853319818,0.0660710714,1.0238597249,0.0064577705,-0.7536952254,0.5938100254,0.3552735815,0.5868147988,0.0363295337,-0.3409758656,-0.401065254,0.415513562,0.4294181431,0.4002242578,0.5855665912,0.4419813216,-0.1181391218,-0.8895101097,0.3256492891,0.2207455715,0.4757411117,-0.3642857288,0.1373027627,-1.0731716081,-0.2400676076,-0.1595581355,-0.2961351204,1.2770135364,-0.2540968417,0.7652606052,-0.776329115,0.4188811623,-0.2619828345,-0.7140210362,-0.0544630336,0.0014779073,-0.5819248497,-0.7317829239,0.755327116,-2.5646284241,0.2608714983,-0.1007788361,0.6864304496,-1.0999725187,0.3537282246,0.1668774985,0.833178415,-0.7643912827,-0.6342277273,-0.7371139549,0.3736158985,-0.707115137,0.3648435503,-0.1165596056,-0.5694676038,0.4501585545,0.8516365954,-22.1195636776,-0.1004343372,-0.7316715906,-1.0644987757,-0.3153816796,-0.2668492257,-0.5275849769,0.1103496074,0.7058730641,0.6181695009,-0.4486171529,-0.6626594676,0.6435699709,0.3427118927,-0.594232412,0.2564245834,0.6014602293,-0.1440729731,-0.6257059238,0.1903455666,0.6061153962,-0.3785819746,-0.4475692828,0.6382500207,1.1202109556,0.3236642961,0.1598282568,-0.5732211451,-0.3443783013,0.8657885634,-0.620563692,0.521476705,0.2739735753,-0.3526265109,-0.413875833,0.3092674936,0.4329125979,0.9424652355,-0.2873795277,0.5213942687,-0.5360589191,-0.3202467772,-0.2267399053,-0.1858163021,-0.8809156852,-1.0392787484,0.9837334189,0.0357221806,0.485960491,-0.3302658766,-2.547724577,-0.2903361891,1.2015425203,-0.1038286348,1.1523236606,-0.6833293001,-1.5004160188,-0.1607813327,0.8971681352,0.2527235157,-0.1409360818,0.0057038593,0.2538773448,-0.7972908178,0.9053822387,0.1145167779,0.016770288,-0.074409511,0.9032056944,-0.203081557,-0.809425787,-0.3408733713,-0.1221023284,-0.6681214836,-0.6555384023,-0.870291413,0.7861639834,-0.8958718509,0.3233737621,-0.0057985328,-0.9522797071,0.1533222552,-0.3335519453,1.5602483739,0.1198080867,-0.0057320795,0.3471617249,-0.5482453798,0.2547617655,-0.1452278815,0.9674938931,0.1716389594,-0.4299443684,-0.2733237525,-0.9612235628,0.1602974895,0.6477800263,-0.1011831284,0.9429589593,-1.0000425864,0.5230728662,-0.3750651764,-0.0345690898,-0.9246132575,0.0318642011,-0.1793112328,-0.9483811153,0.9976570658,-0.2695236633,0.1023304004,-0.8654477291,0.3878862413,-0.5857797169,-0.4849806702,-0.262551867,0.5208151553,0.6925125892,-0.8309297197,0.3717358631,1.1042647266,3.0272399142,-0.1450672787,0.0067857552,-0.0692076795,-0.5891604189,-0.8294693917,-1.3820962305,2.488495726,-0.4105798085,0.8980774834,-0.4894412766,0.3972475721,-0.5756615481,0.4815486834,-0.4596920089,0.8323681429,0.5732957723,-0.5781772918,-0.9500407891,-0.363020089,-0.1884303874,-0.4625949861,-0.7129763626,0.3715192554,-0.0009682024,-2.1046526068,-0.0584966588,-0.5038215291,0.3794856149,0.2765478422,-0.7893632679,0.6129556028,-0.7356538022,-0.6423680993,0.3325762107,-0.3227648082,0.3357845862,-0.0203895435,-0.3028729638,0.3131548036,-0.4534112699,0.1693691229,2.5373126377,-0.3460111939,0.2973429082,0.3104743293,-0.2818338353,0.2503110563,0.5025175375,0.4052684532,-0.1614512468,0.3691973651,-0.5801413406,-0.4978386712,-2.7759805948,0.0388100687,0.7920546854,0.1647016058,-0.7430164665,-0.0614375798,0.6579955557,-0.3049456364,0.5216331202,-0.1331741211,0.1490991135,-0.5779752334,-1.0621421088,0.7561240015,-0.400475541,0.5554182878,0.687162628,-1.0559997685,-0.2327402156,0.6201896634,-1.2491856186,0.5651222419,-0.7370967536,-0.6952370829,0.7330001515,-0.287819474,-0.0355163537,0.8965589483,0.8415437125,-0.0657631623,-0.6084434176,0.2262811429,0.7029141713,-2.3317735081,0.3448597747,-0.4551858145,0.3355075284,0.580259717,-0.1605629001,-0.6621976145,-0.0844280357,-1.0430619494,-7.4543729209,1.0155303456,16.4444469478,-0.7169394605,-0.6513470477,0.8022772235,-0.8050529072,-0.9946630242,-0.7731736113,-0.648698469,0.4004031651,-0.4037406076,0.3743305358,0.0945746433,0.4807121862,-0.2528139123,3.0318657882,0.643698277,-0.4773567036,-0.1297319095,-0.6214616477,0.0131443357,-0.5268617844,-0.4767933569,-0.5774852403,-0.4041463903,0.5531507399,0.1867096163,-0.9646787588,0.4869630337,0.6502975749,-2.18331277,-0.7041866579,0.7041105479,-1.1798613044,-0.6991234859,0.4092539576,-0.0785194266,0.743918309,-0.3558333972,-0.3250304032,-0.2861806394,2.5616109324,-1.1453350735,0.4466077014,0.8519491656,0.536337278,-0.4957068395,-0.5872678622,-0.7459075864,-0.2072538276,-0.8403290358,0.5937249204,-0.8173902824,-0.5406014382,-0.2881180532,-0.9218027778,0.0115584349,0.2027305409,-2.0771839819,-1.0040223513,-0.6007939305,0.4119695627,0.4933199401,-0.6573245624,-217.0136389231,-1.0072131256,-0.5263160279,-0.4949753786,-0.4970930976,0.1501802168,0.2751144661,1.0027665117,-0.8781925729,-0.3426103257,-0.5983421722,-0.8703682263,-0.7663967208,-0.0827824407,-0.9838582406,-0.5515717502,-0.7265623074,1.1735322917,1.3069972979,0.1293067565,0.5411050006,0.6132632652,0.2527523059,-0.3256065817,0.3074475102,0.1416554941,-0.2902862397,-0.981430519,0.4887835023,0.4749127658,-0.0031368584,0.2469504249,-0.8555433008,0.6605488983,-0.2772652104,-0.5389339672,0.015270269,-0.8373840063,0.2835997196,-0.7031541539,0.7159368879,-1.0710762524,0.9816497083,-0.1245790327,-0.9538560637,0.9233319658,1.0540310996,0.1552553151,-0.5676654347,0.4780107301,0.4344444702,-1.0191824417,0.1158224199,0.3780313425,1.1193922951,0.1846140119,0.809167488,0.4392688666,-0.8282634855,-0.7997756743,-0.7445251513,-0.3460515268,-0.2223688864,0.8826322007,-0.4088614689,-0.4933358525,0.5571017711,-1.0215986482,-0.3128658695,0.134926947,-0.4795022921,0.362091152,-0.0196410406,-0.8011666762,0.6623982922,0.0559133245,0.1992339807,0.2512670018,-0.7072822725,0.0645727132,-0.9370994603,-0.3297015006,0.492584081,-0.3911510433,-0.6394903105,0.4371334834,-0.3786048188,-0.0369391516,-0.6594967411,-0.0821231023,0.3478735122,-0.9908644846,-0.393031096,6.0195182804,0.1472370175,-0.0330623594,-0.7286872275,-0.8918961889,-1.498827957,-0.637292624,-0.8862945788,0.1844417787,-0.170515866,-0.1051876935,-0.4013357776,0.0167124756,-0.0866883927,1.8283338958,-0.9218412432,0.9404663558,0.5469502888,0.1165008295,0.8003392771,0.3565455075,-0.3743132776,0.1704084803,0.3587572896,-0.3412757469,-0.3446514857,-0.6040735032,-0.3708819809,-0.848757292,0.8941086598,0.7155756605,1.1918851477,0.0411905899,-0.4403325679,-0.4994265945,-0.0717415959,0.8561409592,2.0227199436,0.0500872837,0.9520361515,-0.2269393669,0.5303688476,-0.6777152718,0.4128762751,0.2640731144,-0.0564995079,0.3178266976,1.0248823264,-0.2939012203,0.5784762786,-0.0291884839,-0.9066757706,0.3858187818,-0.9174494711,-1.0083701301,0.9614254423,-0.8819495301,-0.9912978892,-0.7480947428,-0.929644917,0.8024273601,0.19169501,0.5731280794,0.2872860718,-0.3728809693,-0.6167029263,0.5021138822,-0.6714676292,0.8268712458,0.3319532915,-0.3799015419,0.8352571626,0.1816970779,-0.2337253563,0.153611146,14.7488208216,-0.9338664827,0.4810234241,0.9045842613,0.1871538458,-0.6556808262,0.1311156644,-0.0877285578,1.8701659973,0.2479094335,0.6005702714,0.7670961879,-0.2408950634,0.1207697856,0.471702437,0.6206326339,-0.0300538424,0.4203360664,0.6883828198,-0.0359147395,0.6525699452,-0.6547014141,0.5862538274,0.0431883771,0.3793923854,-0.4106507803,0.4095063054,-0.581786246,0.6122038024,0.0779199363,0.3501533042,0.8897065792,1.2209287179,0.3238286044,-0.7863325463,-0.3694650528,-0.4762082211,1.184647624,0.0801060398,-0.5587108892,-0.7644063724,0.1023000322,0.3317083819,1.0859431805,-0.6192569994,-0.3040501501,0.2199505309,-0.4561586682,0.272893999,-1.206377351,-0.1074221534,-0.7027007923,1.0048937999,0.5386806694,-0.5625671575,-0.9252257017,-0.809734283,-8.7835309629,-0.6626187232,0.4000578055,-0.3059512082,-1.7033790385,0.3167040257,1.1037540977,0.5840680104,0.7892616459,0.8004781167,0.5486400411,0.0510258439,0.306669818,-0.4968084734,0.3397979263,0.4306849093,0.8204357792,0.1193830178,0.2781449317,-0.4984464439,-1.5106970543,-0.7347288629,-0.5182813576,0.8216253508,0.0920080746,-0.831499179,-0.3986720268,0.5939504945,-0.3965317391,-0.7945547808,0.9402147412,0.3966498918,-0.717623141,0.4055389185,-0.4935525713,0.5993896736,0.1198500365,-0.9004044638,-0.5369098918,0.2475483992,0.4227225777,-1.0897303371,-0.937720697,-0.0538802824,-0.148916967,-5.3738727086,-0.6812319921,1.0773998765,-0.6375640474,-0.6114922434,-0.259828141,0.0420948324,0.8735331888,-0.8675775344,0.3758631115,0.5670521884,-0.7862485389,-0.1799103077,-0.60908852,0.739423403,0.5898197451,0.3566855026,-0.7470257518,0.2883253085,-0.0860029978,0.4029258714,-0.2371546487,0.3397488045,-1.2907830685,-0.0062799543,-0.7342045897,-0.0045338296,-1.1284188842,-0.4755852062,-4.9906691693,-0.2417811966,0.9146866812,-0.0474669884,-0.5055014525,-0.8181405935,-0.9513650964,-0.2931492212,0.0423087736,-1.1848576791,-0.7626234681,0.0480427338,0.8249452987,-0.779188992,-0.4359901862,-0.4918382858,-0.5450487351,-0.0749717689,-0.2771970662,-0.4900044081,0.5609440278,-0.2679498546,0.6561189261,-1.0829340434,0.1998332863,-0.7982392219,0.3751192846,-1.0737389479,0.5962613464,-0.905746458,0.5404766245,-1.0256870993,-0.6976076679,-1.9138112902,-0.2828046141,0.6012572524,0.0010685494,0.0832453448,-0.7050668141,0.3036751115,0.7977254103,0.2543467828,-0.4843424415,0.5231809753,0.078445929,0.1526997915,-0.4253254721,0.8812816386,-0.5792473483,-0.8201665064,-0.3682059596,0.407130859,0.6077264777,-1.8485932318,-0.9658907071,0.997004078,0.0214983421,-0.2996525513,-0.6900304663,-0.3444154716,0.0148164778,0.1833195513,-0.0726465265,-0.2159582032,-0.5686263238,0.473598669,0.0293867113,0.7970134949,0.9415017492,0.3034376433,0.837150833,-0.7039323919,-0.4992611338,0.5408851826,0.4121898119,-0.1081517004,-0.4804430151,-0.3599096328,-0.1241472384,-0.9143799753,-0.0045051194,-0.4531905992,0.9591388404,0.3463916149,0.8877869191,0.0460371955,0.4422745036,-0.0600530869,0.3330090352,-0.4580226193,2.2672392513,0.5944933637,0.9974214847,0.7533051561,-0.8264581063,0.5425935318,-0.8764375026,-0.6797645808,-0.6400053068,-1.0509768003,-0.3549052376,-0.8146684645,0.7157072508,0.440776736,0.3815834794,0.221616805,-0.8107486212,0.9338599334,0.8983661345,0.9717807578,-0.2407687859,-0.5018960718,0.2336356017,-0.0652443444,-0.9067039028,-0.6129775352,-0.1668944756,0.3776697699,0.1030934953,0.8888307786,-0.7450848275,0.107176778,-0.1223553488,-0.3024792926,-0.6240378377,0.3238802085,0.1022812246,-0.5521599728,0.5337200914,0.8975903731,0.7209289868,0.0319886899,-0.8491259874,0.7215771229,-0.6519189068,-0.0977344313,0.722127664,-0.7366786411,0.9872215491,-0.862509106,-0.9199532325,0.3319015696,-0.1558980412,-2.9499661312,0.7713696172,0.8265114203,-0.7905830247,-0.7460529647,0.422552961,0.613794082,-0.7860640225,-0.2060434533,0.3007374959,-0.6112916875,0.8312486834,-0.8016609229,-0.7960829,0.4691574036,0.4342694045,-0.7724934391,-0.844152707,0.3933496093,-0.7991364547,-1.007849318,-0.922524441,-0.4741798395,-0.3830868125,-0.2839410194,-0.6994737397,0.2148273793,0.5002980315,-0.124779883,0.1229146297,-1.7745894765,1.0419040958,0.8893197545,0.0527799026,0.7207306757,-0.8748459114,-0.0510283503,0.4979500642,0.6735852834,-0.1268945573,-0.2015372607,0.7134479148,-0.3428092623,-0.3612629599,-0.6628339078,0.3729001773,0.161090402,0.1912028093,-0.7992968301,-0.2168467301,-0.2658708199,-0.5858281799,0.7265153649,0.1480576163,0.5081922783,-0.4707738405,0.8620504539,-0.0971319223,0.1397228574,0.6926788033,0.431658594,-0.5472293615,0.2138574911,0.4378958761,0.3524271315,0.5967558201,0.6258116706,0.5213826898,0.2147288095,0.0732233452,0.3133229059,-0.3658610229,-0.5691803826,-0.7254992489,0.4897017841,0.5438975244,0.5322676386,-0.1145494571,-0.6827787454,0.1412601885,0.8036185811,-0.0714566184,0.8419743968,0.5982408207,0.3064468951,1.0868979309,-0.4092015161,0.0808476557,-0.1377664261,0.0858297509,1.1418489575,-0.6063418163,-0.664995852,-0.0456602772,0.3716441465,1.0704324689,-0.12398917,0.089823804,-1.030725948,-0.6445565629,-0.6370497329,-0.0315997023,-1.0657949825,-0.1980883725,0.441186349,-0.925089942,0.69581759,-0.4556271734,0.4991182598,1.0696864448,-0.7419389052,-0.5142187334,2.6391931972,-0.1498567659,-0.0333972087,4.4917988514,-0.5987487195,0.248528056,-0.4514490858,-0.2072126742,-0.4934544122,-0.5060571478,0.5356382266,0.8881149141,0.0683321938,0.4965948839,0.2472276152,0.5279012233,-0.0769194845,0.0978944352,-1.361011819,-0.4249516067,0.0004034394,0.4451390106,-1.2704858673,-0.2625119346,-0.1760035345,0.2935530403,-1.02721593,0.1902925243,-0.2106868385,-0.930313252,-0.854252916,-0.704739223,-0.7157050356,-0.1695015073,0.4270919813,-0.387368226,-0.2398500956,-1.4131096888,0.1487749275,1.05358057,-0.1017353162,-0.3576138824,0.306283372,1.1138581365,-1.9032325585,0.504034477,0.1837513723,0.6549764609,-0.8807923107,0.8404155355,-0.571310343,0.3467457022,0.6296108379,-0.9690029599,0.7236127776,1.0186505251,0.2085815425,1.065862371,0.3822074047,-0.7287832258,0.1258732656,-0.8631898949,1.0673322946,0.9575998507,-0.5609141615,1.0557794436,0.9787278236,0.7943317977,0.3783050254,0.088852016,-0.4741457119,0.2462144155,-0.3834694818,-0.1573665729,0.153908981,1.9323009991,-0.119875301,0.2056685618,0.3967716226,1.7160237336,-0.3438349279,0.2854554605,0.2545998196,1.9172533762,-0.8954583099,0.2008211565,-0.9004891066,-0.5306833429,0.6311221361,-0.3241978884,0.2177073635,0.3579438945,-0.99592513,-0.1692185768,-0.6296974057,2.0389192171,-1.1507902985,0.9532232728,0.0632337178,0.7804725817,-0.0724776582,-0.3231698294,0.9092345994,0.9980130162,-0.4360834017,0.8144429342,-0.125035728,0.2585984431,0.4152371707,-0.1553438587,0.7733746484,0.5108466126,-0.5265574605,0.040489917,-0.6553147258,0.4674060272,0.0715190772,-0.169628189,-0.0197641397,0.1918327012,0.6902932443,0.3711539802,0.6435520521,0.463061135,-0.6650826529,0.7239394559,0.7745117355,0.3847373881,0.7651972829,0.2179087113,0.1590446876,-0.2848091676,-0.0134113565,0.4278336739,-1.0588979034,1.1189105164,0.4889115964,0.2047046043,-0.8733389382,-0.5982397278,0.8219071386,-0.3831905438,-0.4619071076,-0.4852067732,0.4458027727,-0.1553433488,-0.3608757202,-0.4223823511,1.0132511481,0.1996463564,-0.4066411876,0.6356065419,0.3229361084,-0.6049156081,0.7897293515,0.7412738057,0.7436876467,0.9130795792,0.4705288549,-0.8504827901,-0.0501021905,-0.1625409942,0.5843355156,0.1862411088,-0.4340007688,0.2500488282,0.3586747047,-0.8745530786,0.5213166443,-0.9924521681,0.3321575296,-0.0331278853,0.4288782825,-1.0084040515,-0.5944852868,-0.9160454907,-0.9531953101,-1.1647649445,0.1082229977,0.1427407413,-0.6745693583,-0.1274645355,0.4954938731,-0.9759636221,0.7184053136,-1.021827581,-0.1475735456,0.2443722089,0.8789701383,0.6878074047,-0.4234862898,0.3901057539,-0.4164117532,-2.0865299136,0.0446425189,0.7895907305,-1.1021454432,1.1119502465,0.7152380089,-0.1096049545,0.1595298351,0.9712850495,-0.0519076861,0.4928777705,0.4837845285,0.6390598649,-0.5484736239,0.1912945357,-2.25047935,0.6380967947,0.5639450347,0.4508652093,0.4209889093,0.7881048998,0.3105951606,-0.1825023046,-0.2322537936,-0.3701113767,0.9970439027,0.3314491136,0.9013584594,0.170635183,0.6415830563,-0.1032090468,-0.8527681369,0.5987795376,0.9549409329,-0.7836844346,-0.5395847998,-0.3221990769,0.9687295651,-0.2343087287,-0.7196217777,-0.4252734916,-0.5002445111,-0.947353359,1.0009162721,0.6732955464,-0.9787634598,-0.5076734506,-0.4997723631,0.4770656274,0.2310236876,-0.2025867812,0.2052971554,-0.1421955808,-0.8171931155,-0.7160925053,0.9230385936,-0.3257157793,-0.4191262071,0.0467718716,-0.2124287547,-0.7840585295,-0.0266478698,-0.1229197615,-0.3364933951,-0.1836899924,-0.1498390901,0.4854225735,-0.5850519172,0.3444715785,-0.0809132006,-0.8587307035,0.3993905086,-1.0829362851,-0.4642713196,-0.3289790596,0.5488286376,0.6880701824,0.767783685,-0.2754803841,0.6574738546,0.4389584001,-0.8147553317,-0.0640641795,-0.2250233525,0.8727546159,-2.8358490518,-0.5937140051,0.3229774849,-0.1459872283,-0.304209293,1.1442091147,6.3819007716,-0.7317977943,-2.0628612911,0.2369241134,1.5137012564,-0.2546599558,-0.2234896459,0.2533233848,67.6702876925,0.0354761341,-0.852494481,-0.5229566171,31.4156404002,0.0428746863,-0.2649153662,0.1989799217,1.7581859941,0.4833870906,-0.0755579176,-0.4374643603,0.6851171701,0.5347672493,-0.8473038805,-0.5384866452,8.5112142652,-0.9300176174,0.1814385691,0.1778307008,31.8361798798,-0.4034448569,0.3628799281,0.4626314974,7.0145656047,-1.0416329507,0.9393411926,0.0654567325,0.6934297712,0.4634703922,0.0711176662,0.3892516941,-0.6045612234,-0.5423702974,-0.2164786654,-1.0595314903,-0.9785656223,0.8010614338,0.2529124142,-0.1722130726,-0.9668288311,0.3809975496,0.1571151121,0.8691729019,-0.4647741075,-0.5005396192,-0.579666442,0.4371117546,0.1517446369,0.4322170029,0.5089974741,0.0890020402,0.7219035294,0.8434348349,-0.608785992,0.2547333901,-0.4855868544,0.006337795,0.1593652023,-0.3352735922,0.7229015868,0.7235767179,-1.2109082954,0.6629759599,-0.1221172984,0.6481577454,0.7060534034,0.5182423363,0.8232921088,-1.2549873883,-0.3997475474,-0.3062849197,0.5633804363,0.3038296547,-0.0682928584,-0.2466949109,-0.6399049131,-0.3942013417,-0.9206238232,0.4937475874,-0.831198222,0.3971864079,0.9093922458,0.1806323514,0.8546962561,0.7118070478,0.6513916975,-0.5421932746,-0.4539460007,0.8575162433,0.0206215281,-1.1640718008,-0.2738598192,0.3185448066,0.6924977964,0.347361791,0.265967208,0.238416016,-0.0578592699,-0.1818810882,-0.7572580254,0.9527082706,-0.6656136987,-1.1264347718,1.0068157627,0.7183160807,0.8739117131,-0.8267232087,0.3000562299,-0.9779841493,-0.9049896657,0.2733334337,-0.239682187,0.9033846058,0.464041329,-0.5244556286,0.687756127,-0.0377509175,-0.3432387294,0.5944676,-0.5719041766,0.5292341233,-0.6048544487,0.2863586216,-0.7144319546,-0.010751209,-0.9036797386,-1.1604537371,-1.1477171469,-0.4421856677,0.48704932,-0.588990169,0.5854000654,0.3622156347,-0.0573912198,-0.3006172781,0.0383304039,0.3746299446,-0.2170272523,0.6083933628,0.3410194704,0.5945926348,0.9260488423,-1.0648603754,-0.7057064706,-0.9773671015,-0.404755552,-0.9994688114,-0.8742593197,-0.4536938269,-1.1115255702,-0.7243163822,-0.6207403888,-0.9500277569,0.8308554622,-0.6021853614,0.0926603845,0.4042000147,0.464713797,0.6919590571,1.1773187623,-0.9312551166,-0.8169384378,0.3905436379
   -0.1018033874,-0.3296685515,-1.3727756942,0.9110446347,-0.8735947759,0.230286077,-0.8214448712,-0.6958317625,-0.387391718,-0.3269055269,0.0123518516,0.0833341582,0.0701052021,0.7549934237,0.0648187914,0.7830050016,0.8040543037,-0.449585333,-0.7036130073,-1.0923644593,-0.0943879311,-1.1709173007,0.5435516365,0.1087333031,-0.4282738967,-0.3663616756,0.6893053518,0.5722653641,0.3417303942,0.6061956833,0.2834114479,-0.0318933684,-0.1347972951,0.9137650674,-0.605587936,-0.7431557948,-0.3839314041,-0.9490072185,0.1827685078,0.2716582918,-0.6190253258,0.0591328498,-0.6484146119,0.0974451196,0.6428517241,0.1440569401,-0.3514364643,0.8544786237,0.1544670864,0.8871366601,-0.5285391435,0.9896514169,0.6662845283,0.7619369366,-0.8784138329,-0.026687424,-0.225915982,0.2865892165,0.3810030982,-0.2330229459,-0.7088121768,0.0576305989,-0.4849985496,-0.3926543728,-0.3529484137,1.4342208041,-0.2392970212,0.8886296189,-0.4673717077,1.197606964,0.9678187221,-0.026910733,-0.7192276725,-0.2073976399,0.4107991001,0.3725915085,0.6789921349,-0.0725218516,0.7988422122,-0.5706052163,0.5464807842,0.0830400102,0.6228253651,-0.3928866095,0.2883432001,0.1734649667,0.0930542215,-0.221731146,0.5488888769,0.1781554757,-0.9817725296,0.4017377873,0.5797736657,0.275381918,-0.4205158953,-0.0515876996,-1.0551979658,0.8881158419,0.6559822133,-0.182998775,-1.0332848788,-0.7464920936,0.6241483839,-0.2976478199,-1.040618888,0.8312082167,0.8012389151,0.4967593269,0.7870212505,0.0709162006,1.0757508022,0.1784707443,-0.8692955505,-0.5503572498,-0.3199425969,0.7799146351,-0.5044760312,-0.3351431041,-0.5548026935,0.4959042485,-0.4715330827,-1.9167610992,0.4465624576,-0.8431095741,0.7016285426,0.0823336381,1.0239653301,0.7563205599,0.952363891,0.6483298426,-0.9029854211,0.5155507071,0.5624432186,-0.3792048146,-0.8674142371,1.0684829493,0.3194390582,-0.8834573757,0.6212918185,-0.2759452162,-0.4653081217,0.7091474233,0.3729381838,0.6543421577,1.007582006,0.3835468062,0.4459294904,0.1147641658,0.2370497992,-0.0778356928,0.2624954019,-0.2754800276,0.1535065896,-0.8327870695,-0.9979433321,0.1244573315,-0.7191930063,-0.6515736342,-0.1565607263,0.78482448,0.0406975777,0.3815380392,0.629690643,0.2355888228,0.4281591067,-0.6561578591,0.361767716,-1.1794303479,-0.6067960991,-0.4573076048,0.3258518468,-1.146772638,-1.0069581955,0.3064796108,0.5143721671,0.8690235558,-0.2803441049,-0.5616127214,-2.2968487209,-0.7459276859,-0.8443591767,0.5683311544,-1.8165527314,1.1733672485,-0.2107236779,-0.1863596227,-0.9256143853,-0.0440928106,-0.2147425378,-0.3151260499,0.3719805529,-0.3763507561,-2.8461797112,-0.6071156637,-3.4907991477,1.7720754089,-0.7287596217,-0.2744696586,0.1068746984,14.0149501308,-0.7298464244,0.7232965598,-0.3716276626,-0.9093581762,-0.4884649262,-0.016254251,0.5918726754,0.9886032232,-0.6232888692,0.2640184492,0.8947149092,2.6943684214,-2.2386981818,-0.4025696876,0.0209591356,3.4917181161,0.602496423,0.5771994038,0.8047699251,0.2094902782,0.6256186599,0.0287593642,0.8075197469,0.3051413979,0.6860601333,-0.5506663258,-0.4828171538,53.1375009509,-0.9547014305,-3.5496925511,-0.548275971,-0.5657371168,-0.4761854493,1.3319247972,0.8082618746,0.1181695854,0.2784753021,0.4320177146,-0.2405329945,0.255322385,-0.4531545981,-0.0305913625,0.5584496096,0.0871561175,0.6204992018,-0.8137961505,1.326500399,0.6620394569,-0.1201924642,0.6989590829,0.4323001223,-0.8671824963,0.6708844944,-0.9658933102,1.5853922435,0.8186337701,-0.3950404264,0.9173865354,0.077032174,-0.6503642266,-0.7661047248,0.167002297,0.5209900194,0.6616313216,0.0347185391,0.4694736219,0.4568550222,1.0400287005,0.2354308024,0.2942415631,-0.6471229826,-0.613050166,-1.3181741189,0.6808355402,0.3558574624,-0.3711116738,-0.2599545729,-0.8286972011,0.8812785105,1.2647874372,-0.1390736588,-1.013411631,-0.2554315964,1.3375907717,-0.0100601364,-0.6224077151,-0.5551256415,-0.3694063041,-0.4336338211,-0.696292682,0.4744499048,0.4620039491,0.3533358298,0.7413959325,-1.021223404,1.1749952097,0.8607579944,0.5041368916,0.7406609147,0.937195908,0.3695035963,-0.1909943167,0.8816704454,-0.6787838541,-0.5668405099,-1.1382911422,0.1085448963,-0.2700770618,-0.8346066069,-0.6087337381,-0.4936358993,-0.1328146773,-0.7059401867,-0.7693221353,-0.7261986024,0.7767193866,-0.3506683669,-0.2492391471,-1.0788332576,-0.7970590405,0.8700578233,-0.4132495228,-0.9048821416,1.1135063393,0.1372698926,1.06092887,1.044072848,0.3185523311,-0.9714889283,0.381803321,0.5760970294,-0.6881196784,-1.1086314962,-0.645557782,-0.4231045409,0.5024543506,0.4222644974,-0.2848722764,-0.0156487295,-0.1599553877,-0.6669982086,-0.0192539308,0.5405184346,0.1099668184,-0.4042350998,0.0239427759,0.0027922909,1.0162760193,-0.5009824445,0.3358044292,0.2282414748,-0.5476442359,-0.8396994654,0.4621732161,0.7007659432,-2.3015401218,1.6841694732,1.2435992597,7.2283300751,-0.9524764279,22.8657835092,-0.9811190089,1.1422887323,0.5941405579,63.4567275507,0.1628683969,-0.0071597998,0.3942708233,0.1933642597,-0.1962940896,-0.1307636415,-0.3728552293,0.7291090877,-0.5680252736,-0.5308884144,0.1269540117,1.2114354387,2.4676251127,-0.3963274543,-2.8975175708,0.9087639166,0.3490043115,-0.127365871,-0.442204873,0.652037355,1.3529383712,-0.3195209605,-1.0637908393,0.9641318271,-0.0186597744,-0.7851677174,-165.4067754551,-0.5998091008,0.804922231,0.6085027767,0.3362745977,2.7740516073,0.5864176009,-0.5360888948,-0.2272128849,1.2616013059,-0.96318932,0.1691750142,0.2814817839,-0.2239382265,0.4946829248,-0.1094347227,-0.9081759115,-1.066337122,-0.481195492,0.7472923729,-0.3214541548,1.0673084781,-0.2565132694,-0.6480252409,-0.3435845998,1.4985389512,-3.1215769278,-0.6848245658,0.6044358942,-0.0384630997,-0.6333469953,0.918105108,-0.1880188868,0.5941324731,0.2182541836,-1.0152942636,1.1075969564,0.6679193446,-0.7739060728,-1.0029039311,-0.1711715377,0.7095363038,-0.4440454077,-1.1309611232,-0.1189613313,0.3622586506,-0.9592994028,0.3384600177,0.186615959,1.1574301726,-0.463582858,-0.7589156098,-0.7994679667,-0.2045666877,0.1935796246,0.4569965481,-0.5747538591,0.9297822505,1.4904702518,0.1285520138,0.2245291444,-0.3282914427,0.0430148555,-1.5175038647,0.7781845446,0.4471278791,-1.467031044,-0.5372324375,-0.6425596853,-0.7445138318,-0.8993832829,-0.2366531117,-0.5421357115,-0.3751272308,0.2899293626,-0.140402756,0.6235890966,0.5314055826,-1.2587714966,-2.4430240524,-0.5108385869,-0.002416635,-1.363572529,0.9000622538,-0.112228245,-0.3311591679,0.4739308102,-1.0397288865,-0.6495034821,-0.913866704,-0.6180093958,-0.5612361685,-0.370863373,0.1668937889,-0.8537056337,0.0722866541,-0.5626780167,-0.6393399919,0.8009183507,0.5010824074,-1.4458831113,-1.1689149053,0.437881495,0.2969529388,-1.0385663991,-0.6244828366,0.7736185544,0.4493419499,0.9877473319,0.3814492761,-0.1894896308,-1.1684840143,-0.7689292543,-1.1765000262,-0.7367623329,0.298647252,-0.5961556123,-0.5236182051,-0.280653784,-0.8620801562,-0.8073158593,-0.4546982025,-0.5444834393,-0.0625519161,-0.2406888558,-0.8106912053,0.4672027187,0.6998670467,-1.5495122103,-0.7943628127,0.1838265499,0.6983364986,-0.9489613361,-0.6393527762,0.9873885549,0.1248566351,-1.0877351731,-0.6520282485,-0.4370082946,-0.3007549484,3.6497833462,0.1313122968,-0.2866152622,0.2129566166,-0.5550197991,-0.9834191445,0.6369270739,0.4030646938,-0.3659094268,-0.4183489547,0.5621406136,-0.8783442031,-0.4116987318,0.0934642191,0.2838319491,-0.4919260588,-0.25383176,-0.5687944812,0.7654547163,0.4173137739,-1.1443047767,0.6692847383,0.4305439765,0.4892836925,-0.5354297299,-0.0959334839,-0.5345299957,0.5336713141,-0.4563466407,-1.0183435679,0.8456667406,1.4891467484,-0.8332991739,-0.9088125989,-0.5598120614,0.3363173508,0.1318068149,-3.7281682239,-0.429407725,1.0943650095,-0.05068981,-0.3918796619,0.2296551376,-0.2246640035,-0.6692356027,-0.7331759521,-1.8046521467,0.2380510645,-0.5277261236,0.140037858,0.0940578033,1.6214059182,0.1222681803,-1.685601098,-0.0452903558,0.9685467692,-0.593851224,-1.380060843,-0.383058916,-0.0555723385,-1.1964527657,0.0532777301,0.0029438682,1.0798602818,-0.4568226898,-1.3366415976,0.1616949209,-0.138821587,0.185371098,0.7229696558,-2.2668999455,-0.9813148238,0.036383278,-1.0925131316,-1.0131872775,-0.0316263209,-0.157510397,-0.1748515802,-1.8000766712,0.780593686,0.3882573843,0.5627403413,1.3662398947,0.6985343018,0.3529713983,0.3095148039,-0.0289334285,-1.0135401465,-0.6937615549,0.1045591664,0.8060093433,-0.29563085,-0.9051299337,-0.6611133696,-0.2710981601,0.4595713074,-0.3812259944,-0.2038119405,0.5771609029,-0.8764527029,0.341110932,0.2975551668,0.6561761641,-0.8909311142,1.2320542603,-0.8608767755,-0.1360163439,-0.063996618,0.2750172669,-0.3691198382,-1.0650795594,0.1615367834,-0.9252133972,-0.1636631333,0.5037296803,-0.274851083,-0.0187848983,-0.7515743696,-0.8101723016,-1.0984596887,-0.343563183,0.7883869571,-0.9710152971,-1.4826931417,-0.4491524063,0.2421402172,0.3043463198,0.18036455,1.1428982119,0.1427048418,0.7321069559,0.4300585049,1.1086407212,-0.6002418578,0.5601603217,-0.5072252483,0.6715803894,-0.5956549988,0.6296054411,0.3545369892,2.3333845899,0.1772386196,0.3515155574,-0.1660554334,0.1610430918,1.206850731,0.5706462464,-0.4680239796,0.4282886946,0.9076154466,-0.6473395901,-0.4630959345,0.3264225775,-0.1822354235,-1.1045433911,0.3347568508,-0.8153687209,0.6542033082,-0.6935358337,0.4630689833,0.3447370159,0.6484659377,0.3974254307,0.7660395598,0.8693547002,0.3566024464,0.561569917,-0.1309241409,0.844099616,-0.9756563918,0.1185886921,0.5842457245,-0.110630445,-0.883215838,0.6724878595,-0.4531586246,0.7005688731,-1.0406813722,-0.3287411788,0.2458437897,0.1237271455,0.2835640803,-0.6143893544,0.7198566128,-0.4186102177,-4.0969547522,0.148555872,-0.0192744448,-0.991284903,-1.1446163203,0.0646142077,0.5423340054,-0.5231408649,-0.7673170864,-0.5720293396,0.8643515584,0.3092391778,0.4740249903,0.4740351813,-0.4615938244,0.5207573243,-0.8570761857,-0.1158157955,0.9983601864,-0.9850555905,0.301194003,0.5007919596,-0.0176859799,0.4282505518,-0.8774722314,0.869163585,-1.2425341652,-0.2809253649,0.1853883305,-0.5586865867,-1.1387315792,0.3489799375,0.9865020541,-1.2514819223,-1.1777763369,0.4005430365,0.0593821185,0.8065466952,0.9287149581,-0.5006750507,0.0205693507,-1.1553891821,0.6629315393,-0.9078782101,0.2744255947,0.6127045759,0.8264389997,0.9095059281,-0.7537627623,-0.1729229116,0.2507867317,-0.1037351016,-0.0779162854,-0.1198639427,-1.0426755721,0.4590131427,-0.7287508484,0.6874683362,-0.6140491979,0.978191119,0.9730994959,-2.0503040597,0.0744583088,-0.2068280611,-0.8761599346,-0.6873146714,-0.7479355379,0.8891599147,-0.7105163256,-0.8499367585,-0.1824936863,1.1799817359,1.0964296675,0.2932726912,-0.6194677834,-0.2569001122,-0.1063314207,-0.5472309559,0.5775154358,-0.5020251612,1.3479137123,0.5084304238,0.0038085455,0.2479175834,1.344644137,1.2639180374,-1.5788901307,0.4403959902,0.4720228999,0.4530081498,0.0487820086,-0.1801048487,-0.8744779659,1.264278176,-1.1478406088,-0.8536396297,0.6498837489,0.3421822695,-0.8956923085,-1.9611645669,0.9622986838,-0.4517883515,-1.7461213254,0.6393482186,-0.0061440184,0.1481046192,-0.8553073074,-0.7598268246,-0.1691911117,0.7107575297,1.1958215373,0.5231512459,0.9166354108,0.9950233271,-0.597881145,-0.5333243816,0.300544984,0.1777848285,0.4133436127,-0.7699744014,0.6911543999,0.5682019789,0.5493654708,-0.5849860173,-0.8105142606,1.2371889381,5.4679382174,-0.9329710566,1.0256938516,-0.1981397531,0.6742093734,-0.5244394588,1.0210268547,0.5751227796,0.9550879885,-0.4593847121,1.0331731838,-0.1241592963,0.4107245194,-0.2075704724,-0.7899496524,0.3153320695,-0.9083066496,0.431425856,-0.3889444381,-0.7678593081,-0.3616434097,-0.5553813496,0.5963110966,0.1696725183,0.7561492795,0.0284021095,0.6750495904,0.0834315124,0.7366503407,0.230136053,-0.8131169428,-0.5799908579,0.44899614,-0.586053788,0.5127851608,0.2527455468,-0.1497219789,0.6806010313,-0.4380344428,-0.0769454409,-0.4952143397,0.8425151582,-0.1191956744,0.5616665765,-0.0394800524,0.3049775283,1.7407322247,0.6074701825,0.2032604004,-0.2062917567,0.6290407091,-0.1749785673,-0.5786645862,0.6722408733,1.1698066629,0.8890432633,0.1608298493,-0.2700047117,0.3372188454,0.0030984005,-0.625476189,0.6728103997,0.1415198048,-0.1367324205,0.1959292128,-0.3053403961,-0.5239771056,0.4005258906,-0.210902258,0.2411491608,-0.0318183271,-0.3896526094,0.9561996206,0.0733828653,0.2642278032,0.3823288279,0.0862674633,0.0265802515,0.1690106564,0.2883019853,-0.3983082781,-0.3061172652,-0.4780684432,-0.3626523309,-0.1884116304,-0.0280101924,1.7124021639,-1.1254491563,-0.6461813617,0.1047680165,-0.8475549516,-0.372822373,1.2256578477,0.2924962882,0.1663347689,-0.2171081088,1.2559166284,0.4433960478,-0.8781942722,0.585468507,-0.092823798,0.4206800238,0.3225976145,0.1989411401,-0.0658744135,-0.1275851272,0.426072993,-0.5296145901,0.957381529,-0.8816957154,-0.5316578425,-1.1971664069,-0.5468650827,0.2138498844,0.5725254866,-0.9816094689,1.8005939744,0.8410424014,0.4832501583,0.1164437299,-0.8571438243,-1.043789888,-0.2946957307,0.1556311224,0.2501635059,0.8543839339,0.0908902071,-0.245203022,-0.847059494,-0.4118066872,0.2521108399,-0.4174479903,0.3383220152,-0.1856958791,-0.3276805584,-0.4208914913,0.2817120799,0.6289282825,-0.9834662688,0.1417251194,0.2341022453,0.2564942789,0.644811658,0.5105883704,0.7852312209,0.2043676997,-0.0397610871,-0.0364117997,0.3487168312,-0.843658127,-0.4346956678,-0.076955654,0.081478359,0.2302177896,0.0613683305,-0.4922688409,-0.6773702799,0.4611092769,0.6675334594,0.6441495092,0.2104903712,0.3213334651,0.6146978966,-0.8734482667,0.0866878363,-0.33417671,-0.5672800764,-0.7203119301,-0.5821991697,-4.9468273576,0.3358184643,0.5868171621,0.2872756282,-7.8692287615,-0.2139444236,-0.7883275678,-1.2924903018,-1.4748854063,-0.140970427,0.4528930738,-1.3930091405,0.6105446076,0.2365704974,-0.4411630985,0.1702808404,-1.1226580247,-0.4030762811,0.7305929746,0.4435778617,-2.5370387356,0.5311129464,0.6386771894,-0.0475093148,-1.0370516503,0.7160229316,-0.2428037128,-0.0086083497,-0.3184527731,-0.2000769823,0.6817270976,-0.7854615685,-0.7208387211,-0.2333411348,-0.84111518,-0.5763394597,-1.2488196216,-0.2801925683,0.1443142156,0.1468081503,-0.7909965645,2.0985911632,0.5656596461,-0.638781384,-0.6118084549,2.4183193243,0.0178999943,0.4470486056,-0.6560360699,3.7149923613,-0.8789365979,0.6474039374,0.5270187132,-1.3863094381,-0.5453831124,-0.7420951446,0.3594167791,-0.2750272058,0.4127484918,-0.8422583078,0.3398474638,0.5203087442,-0.6334558808,0.6804986239,0.0365379442,1.9812169589,0.9645183595,1.0983447785,1.0624264813,-0.0759284623,-0.4456396862,-0.5685555392,-0.5172932889,-0.7076242011,0.1327254397,-0.8859212899,0.3844203435,-0.1207402143,1.6880288485,0.0342050587,0.7095807517,-0.268107457,-0.7220028114,0.8809434937,-0.5338037193,0.8586404115,0.0070595601,-0.1949495948,0.2829273369,-0.3577907143,-1.0033862507,-0.6022285359,-0.690138512,-0.5995668952,-2.4612931792,0.3902110627,-0.2164635322,-0.691045456,-0.824777862,1.6472647199,-0.8472271074,0.3892374007,-0.470913647,-0.6607104205,-0.4844169521,-0.891058969,-1.6539982704,1.0282833184,0.7595067805,-0.4235310123,-0.9460167625,0.8096344323,-0.7484398428,-0.6666262585,-0.9100268278,-0.4944543138,-0.3946205195,-0.3740111637,0.3510508369,3.9995903158,-1.1555827426,-0.6785716957,-0.418598701,-0.7995518062,0.3053818525,-0.7325783452,0.063515151,0.5393908699,-0.6055473656,-0.214077805,0.0572326951,1.3912474942,0.8764580291,-0.7703053222,-0.0468783043,0.8716696296,0.3088589504,-0.9875479954,-0.6195572044,0.2323976046,-0.2228185544,0.4515273455,0.3166450824,-0.7320889778,-0.3704598727,-0.8883229911,-0.7703982148,-0.3607510421,0.3049978375,-1.1177021069,0.0009209973,-0.859093934,0.2170822448,0.6835929778,-0.1120388857,0.5565186439,-0.9303748956,0.7089400258,0.6119466677,-0.3677091773,0.5651412741,0.034844461,0.7797991064,-0.0802767478,1.0176784561,0.634921185,0.4391274775,0.0577420945,0.5822348502,-0.5622714218,-0.8121327182,0.5750944084,-2.5273058957,0.7497283487,1.0851480509,-0.8546837702,2.1986013271,-0.4911724001,0.8282645547,-0.7081196878,1.3446002992,0.4523015321,-0.1111079406,-0.0725006558,0.2820806266,-0.5400897221,-0.024741032,-0.8339045253,-0.0082747571,-0.8667301482,0.8447078353,0.3214372482,1.4141118831,-0.5118457798,0.5439150265,-0.0252432119,-0.6210512798,-0.0897755651,0.1679284869,-0.4301265519,0.4824400377,-1.1268986944,1.3643972528,0.3087707332,0.0578476898,1.023860838,-0.261754691,-0.0804262964,0.9208036738,1.7439357017,-0.3375958383,-0.2933017633,-0.6657344676,0.0583012575,-0.5312371667,1.4644051939,0.7857569427,-0.4185014376,-0.3820984505,0.6286306934,0.4813100274,-0.7583963579,-0.769968984,0.7322058991,0.152340898,0.3026162364,-0.5417492491,0.4925455968,0.2329030832,1.2154454427,0.2542156516,0.4958557575,0.3082863904,0.4227904105,0.5384770471,-0.2956300549,0.6078241849,-0.3955157211,-0.2815275824,-0.3469518123,0.7317111704,0.8416316377,-0.3808363387,-0.0328208349,0.2685348666,0.5846603583,0.2222440812,0.6486403275,-0.7661455509,0.535004618,-0.8342786216,0.0426147104,0.1554613894,0.7021047767,-0.9899028937,-0.1634170248,-0.7234051988,0.2252877619,0.2198039107,-0.1633790789,-0.3294306385,0.9871797459,-0.3847432864,-0.5197777753,0.344307142,0.7438156501,-0.7313528188,0.598555499,0.9356845865,-0.2265424697,-0.6264953813,0.3737922877,-0.0054382096,0.2261272587,0.5039277057,0.8067326577,-0.954323974,0.1607266501,1.1080422081,-0.3030032237,-0.9757859485,-0.4282694109,-0.2966280411,-0.5103443487,0.0689037563,0.319914062,0.1119403138,-0.525817111,-1.1885999056,-0.927424849,-0.7268008899,-0.179169334,-0.3612597464,-1.1669132958,-0.4826041597,0.4592616047,0.8348700089,-0.4563575766,0.8980362037,0.1589706837,0.0967989214,-0.7855690122,0.9026944342,0.1370781326,-1.3327501304,0.5237706185,-0.9572431535,-0.6635915133,0.3683188485,0.5367266038,0.28984653,-0.8807253403,0.3972030958,-0.3670858579,-1.1063201387,0.5817732095,0.2536767037,0.4648790393,-0.7190936381,0.3879349967,-0.5073006125,-0.2126080358,-0.1335667713,-1.7786473155,-0.9866301478,0.7188068119,-0.1365870382,0.8495141829,0.250154659,0.9545065568,-0.1772054122,-0.1064779568,-0.3527393635,-0.7935932288,-0.0501011323,-0.7295256335,-0.2376709661,-0.9952499201,-0.2387504819,0.5890421704,-1.0373016602,0.1679335164,0.2569112605,-0.7670428835,0.3521938588,0.0818176306,-0.1526416974,-0.2356443588,-1.0425329184,-1.147480504,1.2925443543,0.8197343264,0.1293528372,-0.95211135,0.6696422023,-0.8397703407,-0.6115421179,0.7645120378,0.3340145271,0.0530655756,0.5281407583,-1.021640349,0.2651734291,-0.8183750803,-0.7047118141,0.4861975746,-0.2057818742,-0.5126781027,0.9482614412,-0.9971093137,0.602131438,-0.2275188559,0.1566513189,0.4184861511,-0.7214923646,0.0424819312,0.719693283,0.4737312626,-0.8716379537,0.6768738045,-0.2312079683,2.3136669913,0.3604887191,0.2683388171,-0.5861754703,0.6509255188,-0.2044672373,-0.5879199164,0.3652830029,0.3254882788,0.4908085715,-0.282559291,0.8630883555,-0.3452267103,-1.2161306407,-0.7583774079,-0.6941139471,0.6456202621,-0.2662484277,0.8985776483,0.3766947299,0.9792489311,0.0852124198,0.1333092332,0.6676157264,-0.3328244518,-0.3843238255,1.2852010158,0.3394122419,-0.8805426949,-0.8821020493,0.9928051961,-0.8267111122,-0.4722161467,-0.1845851711,1.0467218808,0.6682644938,0.2094629271,-0.0995798959,-0.1146200548,0.6389494131,0.7676375428,-0.0987629671,1.1041210742,-0.4894763496,-0.2938397816,-0.6373053103,0.1324806973,-0.734400412,0.7693688541,0.9828378366,0.5221768535,0.5824525021,0.2849693671,0.2021410052,0.9286824014,-0.6659613582,-0.5756922017,0.2431944148,0.4300921908,0.7735547279,-0.1709142752,0.639341293,0.0364942319,-0.6090411646,0.4151728689,0.1766414876,-0.3036631639,-0.1992518662,0.7349115884,0.3957349212,1.2749823442,0.1806337764,-0.7235062679,-0.4328667238,0.7635657445,-1.0687781483,-0.2157847973,-0.2157496297,0.1272321458,0.6690816929,0.4904701622,-0.7103954826,-0.0270726089,-0.4273663767,-0.7919647193,0.0026522792,-0.5006163749,0.2667340275,-0.8024466115,-0.7376949609,1.7494391493,-1.4602702639,0.229351706,1.0046894936,0.0651636688,0.8248468264,-0.440049205,0.5918518462,-0.3986478204,-0.3486306746,-0.0908529388,0.0433684332,-0.0424560678,-1.3095343162,0.077798635,-0.0757438352,1.2195952129,-1.004406726,-1.0050861632,0.9160160821,0.2637849322,-0.1560033443,-0.4780363186,-1.2101537271,0.0677235718,-0.6743228918,0.9481488201,0.5093497188,0.0408954019,0.5434822565,0.874399188,0.4838495085,-0.5476614509,0.6417957593,0.0918573792,1.0596453438,-0.1961784533,0.6492188866,-0.0273918707,-2.614045747,-0.9352944043,-0.1289288015,0.0498938563,-0.7725580882,-0.1622210764,-0.6341406217,-0.525653571,-0.8629509602,-0.3271474679,0.4778012094,-0.0425783143,0.0175022587,-0.216525331,-0.2489211152,-0.2396309987,0.8377293756,-0.6581378535,0.4498717196,-0.4902116146,1.5622038076,0.8475605803,0.3123360589,-0.3529034275,-0.6317793626,-0.6987245017,0.0667906982,-0.7911300486,0.6754649888,1.5709569699,-0.4285060101,0.657033012,-0.4548694833,1.0277899045,0.9097198109,-0.791942223,0.063620297,0.0718522715,-0.4148437146,-0.0903734296,0.3246275908,-2.2592918204,-0.6493105713,0.4281949248,1.0838238222,-0.8280780085,-0.0228153153,0.3808572751,0.0384477454,-0.9318055969,0.961227868,0.1973676403,-0.4187931357,1.4945979072,0.0313947113,0.9006423061,-0.5285486627,-0.4844815222,0.5165661093,-0.5944333159,-0.5252754565,2.4109215923,-0.1059458928,-1.2615096411,-0.1726415529,-1.5142363274,0.1652901992,0.6923623051,0.399453273,-2.4917179863,0.3434505556,0.7039655897,-1.1626615035,-1.7366925487,0.6903380045,0.3675160996,-1.2504197163,0.6822949487,0.1058418084,0.8363988265,0.5972135499,2.299404987,0.214354125,0.5152908411,-0.1827712319,-0.033635719,1.0051064763,0.5854335772,0.3785785901,0.7139704009,-0.7990136649,-0.6567302452,0.1558265346,-0.9819048355,0.1932257149,0.0383709124,-0.0939900849,0.7575061932,-0.7631424916,-0.5860814195,0.7416513755,-0.2515399114,-0.3149489077,-0.1083988156,-0.9515686642,-0.0775517702,0.7030565343,-0.5798566497,0.6947395946,-0.3969123615,-0.3276080434,-0.1659892732,-0.0422925007,0.4831995543,1.9512693513,0.4975978592,-0.6621770707,-0.4331615539,0.7103292687,-0.629088037,-0.6727989695,0.2409756801,-0.0213163836,-0.8709482006,0.8345220931,-0.920623687,0.9036723731,0.2351229565,0.2527869576,0.6198829269,-0.7009426551,0.2443992962,0.3744747822,-0.6494259252,0.7825388588,0.904479453,0.1751894472,0.0817098709,-0.2534361069,0.9699884236,-0.1362393115,-1.2463245884,-0.0182989992,1.0807175094,-0.0658419662,-0.6235886743,-0.2299118531,-0.0042474206,-0.2591366154,-0.6357751428,-0.5602946316,0.5714042039,0.897201751,-0.2638111025,-0.1774840103,0.3942884091,0.4471727162,0.3388156923,-0.4146503268,0.1700788803,0.8360428644,0.3984733789,0.7927076305,-0.4509354656,-1.7346048088,0.3875256202,-0.7718466281,0.9417327335,0.7312082685,-0.7281956057,0.4068161364,0.7129329127,0.6013234919,-0.2329469813,-1.0384675045,0.254358298,-0.8144571704,0.3297202836,0.4007459363,-0.0338880995,-0.0578939757,0.149545434,-0.217225243,0.6353575845,-0.38178995,0.7876801289,0.8318711274,0.3845024925,-0.0439583501,0.9685100494,-0.7640781304,0.6634613116,0.1486926509,0.7034686246,-0.432447117,-1.2678931875,-0.9122500082,-0.0010371088,-0.901370824,0.4758208332,-0.4423111417,-0.9072692177,0.837419861,-1.1369601105,0.4335961633,0.5936170541,-0.4069566989,-0.8526655076,-1.4938592711,0.513529141,0.7542975411,-0.4946322446,-0.5745376385,-0.6060736483,0.4192142268,0.2194227068,0.6732516954,0.7018942248,-0.1075036269,-0.91930826,0.6270732239,-0.9585525245,-0.1489644596,0.7849169535,-0.244663974,0.6415711965,-0.7141293586,-0.2837394481,0.9473829784,0.9867718527,0.8320010822,2.2991753787,0.2428804718,0.8964576856,0.6291768677,0.7182765095,0.4897300463,0.6360473691,0.6242531093,1.0844022154,-0.089709297,-0.7520291271,0.4349217721,-0.63481072,0.3341791787,0.6657769845,0.6537707882,-0.1917590901,-0.6399421502,-1.2147304221,0.1416697346,0.8316845249,0.8482095627,-0.3958884712,0.1095450513,-0.5426094403,0.5567777971,-0.1226582848,0.1909108495,-0.4907547511,0.1360977781,-0.8690680338,-0.5345412773,0.1172077154,0.9497973862,-0.3761093046,-0.1606871122,0.5493080839,-0.2690592782,-0.9217774862,0.2565800195,-0.1793027874,-0.5098316647,0.1116484078,-0.1321296605,-0.5392235369,-0.2733353949,-0.9198351585,0.7173469475,-0.963978017,-0.3818638615,0.6394935381,-0.6753247305,0.4550189516,0.6123198982,0.1037505523,0.1195219823,-1.0074399437,-0.2457415875,-0.4302495512,1.1015467987,0.5560754446,0.5176361399,0.464556168,0.2727531073,0.2001750477,0.4861192082,-0.0248288577,-0.6551498225,0.3532604587,-0.7200017066,-0.6269344635,-0.7707182491,-0.0489650874,-0.8758442791,-0.6145222944,0.9992461671,0.6697962216,0.8769097562,0.3351616624,0.2201862212,0.8915923665,-0.6835340625,0.4050106736,-0.535925981,-0.8644315479,0.5971220165,0.1904105613,-2.4081595085,-0.4032295575,-0.1080035378,-0.8272214203,-0.656694101,-0.8540050964,0.8302572058,0.015186488,0.3337148265,-0.2862428088,-0.3865547077,-1.0387435207,0.5249613767,-0.7263354888,0.3608831762,1.1349246693,0.2366046918,0.3047112216,-0.1275798728,0.5231529369,0.5212191009,0.103444683,-0.5219631953,-0.62395118,0.2715193982,0.6773747778,0.4678357412,1.558425682,0.039333134,0.3199129247,0.6418314271,1.3727789094,0.1101043067,-0.2717326597,-0.604360965,0.0050704803,-0.7318887382,-1.0812578861,-0.4937635653,-0.2950074794,-0.6764353662,0.2052082272,-0.3714096559,0.2137366083,-0.8793045093,-1.6404517346,-2.14700178,-0.155170806,-0.977083811,0.0577162414,0.0759060493,0.4919191244,-0.6355490356,-0.3984924676,-0.4605923401,-0.683558329,0.3065689905,0.5895927631,-0.3543896281,-0.6382384884,-0.3929882738,0.0015402159,-0.0322464832,0.4295573181,0.7869486498,0.5586883945,-1.0904450902,0.7591352629,-0.167310218,0.5102526318,-0.3421652218,-0.3675056554,0.14242721,0.4068589674,0.6647923495,0.1972453277,-1.0117850531,-0.1191355493,0.3332809122,-0.1622465668,0.8298439301,0.9064677077,-0.2788516542,-0.0808242913,0.8752097049,-0.2865906348,0.6656598652,0.877725048,0.2059579884,0.7741472319,-0.2403996521,-0.8220178584,0.478395639,0.8390296571,0.3053105327,0.273793126,-0.9681403698,-0.1025428431,0.6253342653,-0.0985367094,-0.358337962,-1.0367709667,0.1562169928,-1.0824019336,0.8936067019,0.2818401915,-0.7911485581,-0.2719343132,-0.2007123525,0.4317657519,0.7520073839,-1.1133930419,0.0458977945,-0.4167470711,0.1109466388,-0.7879597197,0.6366222725,-0.4177370619,0.5251969671,-0.0266232506,-0.781483993,-0.5764198436,-0.4802575388,-0.6918423363,0.8762051606,0.5320415396,-0.6275464221,0.0054626026,-0.8295989119,0.8942802118,-0.2737670006,-1.5636279253,0.4545337055,0.992053442,0.6750411224,-0.553184591,0.4693826463,0.2517567767,0.7190210802,0.0153788291,0.1647673976,0.5713521363,-0.1256488503,-1.2443454565,-0.6536765647,-0.2765792262,-0.1691401794,0.5853173626,-0.4491534772,-0.586173761,0.7672475746,-0.4840558937,-0.5010242234,1.2453751002,0.6694479631,0.7078077996,0.1049722147,2.3288559172,-0.19785947,-0.3569109255,0.1808983401,0.517216589,-0.7660459465,-0.4779492567,0.2990734238,0.8251455503,0.0731458539,0.4384235606,-1.2904741865,1.0116463468,-0.7421899759,-0.8908346687,0.1944063409,0.7791720753,-0.4055065712,0.6670670233,-0.0558902977,8.0812119941,0.0626436573,-0.018248197,0.163252382,0.1302726978,-0.1339003622,-1.27499815,-0.4440231382,0.4609594286,-0.3743457777,-0.6784670976,0.1911573591,-0.340322048,1.1274399845,-0.6905340776,-0.0250851807,0.3507360694,-0.1028385294,-0.4520222736,0.9633292289,1.032433168,-0.726473096,0.7714220615,0.2814713799,-0.4006137786,-0.1835615892,-0.2187754973,0.0601245725,-0.1230735932,0.8376886265,-0.3345130362,0.7011694867
